#include <LinePredictionModel.h>


const float LinePredictionModel_layer_0_weights_hr[] = {
0.11182399094104767, -0.022032948210835457, 0.01679321564733982, 0.09236566722393036, 0.12648046016693115, -0.07799895852804184, 0.11767268925905228, -0.03173660486936569, 0.027562681585550308, -0.05371733382344246, 0.05495269224047661, 0.0656636580824852, -0.06367757171392441, -0.036610428243875504, 0.000157948539708741, -0.021278806030750275, -0.13669070601463318, 0.19694370031356812, -0.03280237689614296, 0.10357806086540222, -0.14829732477664948, 0.13884684443473816, -0.14965371787548065, -0.10910141468048096, -0.09890637546777725, -0.11180197447538376, 0.165788471698761, -0.1408478021621704, -0.20927663147449493, -0.001231790753081441, -0.03542057424783707, 0.008960061706602573, 0.10054152458906174, -0.2837415933609009, 0.014628368429839611, 0.17128226161003113, -0.054416488856077194, -0.09521254152059555, 0.05616544187068939, 0.1315189152956009, -0.15790821611881256, -0.13887085020542145, -0.008792703039944172, -0.07628679275512695, 0.12155204266309738, -0.15504467487335205, 0.02834605798125267, -0.09553015232086182, 0.15748640894889832, 0.07675458490848541, -0.02497546188533306, -0.07399722188711166, -0.06733812391757965, -0.08431847393512726, 0.039363402873277664, 0.12687896192073822, -0.032220255583524704, 0.0775701105594635, -0.1419459879398346, 0.04407650977373123, -0.12354785203933716, -0.16077972948551178, 0.08594314754009247, -0.0860656201839447, 
0.06586496531963348, 0.07841891050338745, -0.2006443440914154, 0.1374424248933792, -0.07986154407262802, -0.06507585197687149, 0.07276172935962677, -0.09921424090862274, 0.06692499667406082, 0.16028060019016266, -0.019171247258782387, -0.08729387074708939, -0.041094373911619186, -0.019663862884044647, 0.0009560110629536211, -0.1437065452337265, -0.08071205765008926, 0.05101701244711876, -0.025493595749139786, -0.02700800634920597, 0.0828000158071518, -0.029314177110791206, -0.22860443592071533, 0.19743984937667847, -0.1526138335466385, -0.17267005145549774, 0.06443886458873749, -0.13336826860904694, 0.04533954709768295, -0.2158687859773636, 0.07305438816547394, 0.0026862267404794693, -0.015303289517760277, 0.09531402587890625, 0.285472571849823, -0.026530399918556213, 0.017347386106848717, 0.026889970526099205, -1.2788359526894055e-05, -0.013403231278061867, -0.06453058868646622, -0.10286534577608109, -0.1568005383014679, 0.029671669006347656, 2.8690345061477274e-05, 0.0787101686000824, -0.04300806298851967, 0.10795183479785919, 0.13779456913471222, -0.13625819981098175, -0.006422393023967743, -0.07228337973356247, -0.18253003060817719, -0.14440500736236572, -0.03960762917995453, 0.09138835966587067, 0.00679113669320941, 0.08913577347993851, -0.005134970881044865, 0.14962810277938843, -0.10599157959222794, -0.13143010437488556, 0.062278229743242264, -0.0006116850418038666, 
0.15451966226100922, -0.11586704105138779, 0.10446859896183014, 0.13651111721992493, 0.11787168681621552, 0.0487591028213501, -0.02322005107998848, -0.1155259981751442, -0.08093065768480301, -0.12489311397075653, 0.23129096627235413, -0.09061826020479202, 0.15733036398887634, -0.0792594626545906, 0.008899473585188389, -0.06572913378477097, -0.006054515019059181, 0.004650645423680544, 0.013970721513032913, -0.030054006725549698, -0.12135549634695053, 0.1302562952041626, -0.0521017462015152, 0.002953185001388192, -0.03736286610364914, 0.025939786806702614, -0.0792318806052208, 0.1802186369895935, 0.08869049698114395, 0.038753803819417953, 0.011738155968487263, 0.10043463110923767, 0.04128361493349075, -0.1152636781334877, 0.02516280859708786, 0.04242122173309326, -0.045285895466804504, -0.17399956285953522, -0.1584826111793518, -0.045327428728342056, 0.0409737266600132, -0.055214472115039825, -0.10581434518098831, -0.09638858586549759, -0.04380437359213829, -0.09593502432107925, -0.03357524797320366, -0.11837799102067947, 0.08242354542016983, -0.07483193278312683, 0.016198288649320602, -0.05383463203907013, 0.004474405199289322, -0.03210676461458206, -0.007034436333924532, 0.08737023919820786, 0.061997346580028534, -0.1366654932498932, -0.11664779484272003, -0.03552647680044174, -0.07855767011642456, -0.05423983186483383, -0.01713620312511921, 0.07506875693798065, 
-0.1910380870103836, -0.05604379251599312, 0.060451440513134, 0.15501847863197327, -0.08307124674320221, -0.05550485849380493, 0.009864172898232937, -0.10101312398910522, 0.1178194135427475, 0.1205960065126419, -0.0012441098224371672, -0.022289160639047623, 0.13576076924800873, 0.05233931168913841, -0.11880764365196228, -0.07360825687646866, 0.04215114936232567, 0.10442140698432922, -0.07262400537729263, 0.07867176830768585, -0.001629743492230773, -0.08500474691390991, -0.05033523961901665, 0.10950906574726105, -0.14116188883781433, -0.0243084579706192, -0.09420188516378403, -0.04317469894886017, -0.12446365505456924, -0.12994366884231567, 0.12342992424964905, -0.06156308576464653, 0.13128091394901276, -0.06386153399944305, 0.10528954863548279, -0.06014943867921829, 0.11388649791479111, -0.06322506070137024, -0.008160022087395191, 0.00494299316778779, -0.1039218008518219, -0.21816429495811462, 0.027726421132683754, -0.21518070995807648, 0.09601551294326782, 0.0934123694896698, -0.16050392389297485, 0.195011705160141, -0.12511861324310303, -0.11988800019025803, 0.013218986801803112, -0.02654130756855011, -0.1611597239971161, -0.041624706238508224, 0.04898180812597275, -0.07488332688808441, 0.03328453004360199, -0.031830839812755585, -0.03168820962309837, -0.06996065378189087, 0.10950649529695511, 0.03163515776395798, 0.08611323684453964, -0.09152837842702866, 
0.0016266686143353581, -0.03460817411541939, 0.07236165553331375, -0.053400784730911255, 0.11440342664718628, 0.07820918411016464, 0.06962846964597702, 0.037887342274188995, -0.03174702450633049, 0.03898173198103905, -0.06654705852270126, -0.09331022202968597, -0.07279596477746964, 0.09608122706413269, -0.0018040264258161187, -0.11573949456214905, 0.023888636380434036, 0.10306598246097565, -0.1077873557806015, 0.11381126195192337, -0.11413005739450455, -0.0187546219676733, 0.03145560249686241, 0.03132784739136696, 0.14210228621959686, -0.1020340546965599, -0.037536848336458206, -0.033268190920352936, 0.021020444110035896, 0.01893468201160431, 0.09403856843709946, -0.08646486699581146, -0.041271306574344635, 0.06366688013076782, -0.017174147069454193, 0.12316109240055084, -0.04016944766044617, -0.03667619451880455, 0.13716700673103333, -0.08265512436628342, -0.056703515350818634, 0.034823715686798096, 0.06719225645065308, -0.07866646349430084, -0.10940654575824738, -0.1142837181687355, 0.12257417291402817, 0.1520654559135437, -0.06768345087766647, 0.03380697965621948, -0.0025706265587359667, 0.09985286742448807, -0.018471544608473778, -0.10434253513813019, 0.02407771907746792, 0.17082399129867554, 0.07924741506576538, 0.12893430888652802, 0.0836196169257164, 0.028426572680473328, 0.04684355854988098, -0.15356633067131042, 0.019269008189439774, 0.01773136481642723, 
-0.06049295514822006, -0.07038113474845886, 0.05186517909169197, 0.02732818014919758, -0.01341981440782547, 0.14222489297389984, -0.021935943514108658, -0.028266754001379013, -0.00026619317941367626, 0.010500441305339336, 0.16994096338748932, 0.16372261941432953, 0.14921197295188904, -0.08009708672761917, -0.23645874857902527, 0.10903587192296982, 0.08217629790306091, 0.13573604822158813, -0.015541722066700459, -0.044890765100717545, 0.0621832013130188, 0.0761219933629036, 0.09631329774856567, 0.07594035565853119, -0.11139489710330963, 0.03467796370387077, -0.11585453152656555, 0.05051007494330406, 0.10192696005105972, -0.13002420961856842, -0.019360506907105446, -0.08273382484912872, 0.11158552765846252, 0.23241566121578217, -0.17987008392810822, -0.09976059943437576, 0.008644647896289825, -0.16851356625556946, 0.028176400810480118, 0.06536095589399338, -0.1309731900691986, -0.1922445446252823, 0.13603748381137848, -0.07644931226968765, 0.04569977894425392, -0.12479455769062042, -0.08290790021419525, 0.05688413232564926, -0.04878806695342064, -0.04003288969397545, 0.044129300862550735, 0.0055646407417953014, 0.03049161657691002, -0.0184029471129179, -0.10218841582536697, 0.26430758833885193, -0.014918791130185127, -0.20132756233215332, 0.013825722970068455, -0.03286390379071236, -0.07738003134727478, 0.0028616231866180897, 0.019991695880889893, -0.003623947035521269, 
0.06982940435409546, -0.0019113208400085568, -0.16465862095355988, -0.021272748708724976, 0.03867182508111, -0.0009069121442735195, 0.09510611742734909, 0.10817230492830276, -0.1236458569765091, -0.003666006028652191, 0.14074116945266724, 0.004465652164071798, 0.08640500903129578, -0.13332964479923248, 0.010408151894807816, 0.1443801373243332, 0.06785117089748383, -0.0027760318480432034, -0.05551235005259514, 0.03603007271885872, 0.08820199221372604, -0.03654692322015762, 0.14389128983020782, -0.05374573543667793, 0.04566884785890579, 0.03488035872578621, -0.024894649162888527, 0.048401713371276855, 0.10962799936532974, -0.06131713092327118, 0.010418250225484371, -0.0587269626557827, 0.0606083944439888, -0.05537174269556999, -0.14829207956790924, -0.028995083644986153, -0.007524489425122738, 0.03458332270383835, 0.04774477332830429, -0.02277933619916439, -0.07690708339214325, -0.10639645159244537, 0.03914233297109604, -0.03998629376292229, 0.05311189964413643, -0.002702439669519663, -0.054189346730709076, 0.03285742178559303, 0.04052016884088516, 0.07389848679304123, 0.035971805453300476, 0.014551285654306412, 0.031797729432582855, 0.1074429303407669, 0.03580218553543091, -0.015786074101924896, 0.1068059653043747, 0.06747203320264816, 0.030611567199230194, -0.003599971067160368, 0.01400851272046566, 0.04244329035282135, 0.008789566345512867, -0.08134198188781738, 
-0.07972448319196701, -0.023011138662695885, 0.03668892756104469, 0.029290564358234406, 0.12237101048231125, 0.06548389047384262, 0.022230705246329308, -0.05712563171982765, 0.018828259781003, -0.19787868857383728, 0.08772232383489609, 0.0012173110153526068, 0.14105451107025146, -0.1311049908399582, -0.0530589260160923, -0.10572878271341324, 0.05615037679672241, -0.014313610270619392, 0.08171749860048294, 0.011163300834596157, -0.08137666434049606, -0.027055878192186356, -0.094948910176754, 0.019204700365662575, -0.0036613107658922672, 0.0037132762372493744, 0.0634654089808464, -0.04148317873477936, -0.014569997787475586, 0.03331095725297928, 0.022616442292928696, 0.1501302868127823, 0.11029843240976334, -0.039597101509571075, 0.08641927689313889, -0.08137109130620956, -0.06870297342538834, -0.06192503497004509, 0.014443990774452686, -0.05051703378558159, -0.12583854794502258, -0.029788147658109665, 0.11832195520401001, -0.03558151423931122, -0.03793396055698395, -0.10870774835348129, 0.05032718554139137, 0.06462894380092621, -0.11372541636228561, -0.031165042892098427, 0.028488818556070328, -0.11801262944936752, -0.07263490557670593, 0.06761722266674042, 0.05480960011482239, -0.013916414231061935, -0.040443167090415955, -0.02981039136648178, -0.12182842195034027, 0.056170523166656494, -0.10299941897392273, -0.005407597869634628, -0.0052009932696819305, 0.06555385887622833, 
-0.1729111522436142, 0.10925207287073135, 0.1448776125907898, 0.13943274319171906, 0.07093319296836853, -0.0015663064550608397, -0.00906226597726345, 0.05392758548259735, 0.035639435052871704, 0.20269575715065002, -0.10232286900281906, 0.05960017442703247, 0.20189863443374634, 0.1432093232870102, -0.2426733672618866, 0.23690271377563477, -0.08250938355922699, 0.21539750695228577, -0.07034891098737717, -0.005138734355568886, 0.05729733407497406, -0.05875903740525246, -0.11227024346590042, 0.05730145052075386, -0.014325166121125221, -0.035691335797309875, 0.010769209824502468, -0.050837695598602295, 0.0045900363475084305, -0.16511301696300507, -0.1830836832523346, -0.22408843040466309, -0.053881023079156876, 0.2681044042110443, 0.03527327999472618, 0.05993013083934784, 0.20815224945545197, 0.06187181919813156, 0.08108097314834595, 0.21058446168899536, -0.07982131838798523, -0.0749620795249939, 0.05219503119587898, 0.008536498993635178, 0.052620287984609604, -0.08282884210348129, -0.028006862848997116, 0.1878891885280609, 0.10034683346748352, 0.033819518983364105, -0.01309974491596222, 0.014710810035467148, 0.005527790170162916, -0.058551445603370667, 0.14367753267288208, -0.02561774104833603, 0.10058875381946564, -0.10952417552471161, -0.09623796492815018, 0.0910453200340271, 0.03901994228363037, -0.1891619861125946, -0.03833266347646713, 0.016144344583153725, 
0.0450810007750988, 0.11538399755954742, 0.17552731931209564, -0.023675737902522087, 0.019210921600461006, 0.09879196435213089, -0.09583847224712372, 0.004361484199762344, 0.09317458420991898, 0.045445766299963, -0.05089515075087547, 0.07453472912311554, 0.012820536270737648, -0.05221172049641609, -0.11515988409519196, 0.029056135565042496, -0.1082674041390419, -0.08396182209253311, -0.10036995261907578, 0.1465703397989273, -0.04146338999271393, -0.09185829013586044, 0.07918789982795715, -0.009282869286835194, -0.005118889268487692, -0.05695975199341774, 0.13232876360416412, -0.025323927402496338, 0.10655305534601212, -0.10042572766542435, 0.1055217906832695, -0.09534867107868195, 3.978702807216905e-07, 0.142406165599823, -0.09057693928480148, -0.042694028466939926, -0.07726023346185684, -0.09876540303230286, -0.09267107397317886, 0.1545935720205307, -0.10891177505254745, -0.04046642780303955, 0.14905576407909393, -0.06109432503581047, -0.047706034034490585, -0.13171526789665222, -0.06683029979467392, -0.002977767726406455, 0.0016635850770398974, 0.0423678420484066, 0.11293864995241165, 0.06514430046081543, 0.023937733843922615, 0.04067613184452057, 0.1006178930401802, 0.01114567369222641, 0.12545187771320343, -0.12903010845184326, 0.1287132054567337, 0.08397027105093002, -0.011985466815531254, -0.12124288827180862, 0.053567931056022644, 0.09461332857608795, 
-0.08665063977241516, -0.03967573121190071, 0.08396398276090622, 0.025387480854988098, 0.11184944957494736, 0.16717848181724548, 0.06250200420618057, 0.004327141214162111, -0.05714863911271095, 0.01822536438703537, 0.0632941871881485, 0.0071552894078195095, 0.1224759966135025, 0.03801382705569267, -0.02847128175199032, 0.16527195274829865, -0.05796975642442703, 0.1860726922750473, 0.010690935887396336, 0.12296424061059952, 0.0007259162957780063, 0.1093577891588211, 0.029917748644948006, 0.0826115608215332, -0.05945493280887604, 0.06019902229309082, -0.012922439724206924, 0.05567847564816475, -0.17284557223320007, -0.21829316020011902, -0.07744728773832321, -0.060465257614851, -0.12842212617397308, 0.1708044856786728, 0.10977450013160706, -0.08579866588115692, 0.21935179829597473, -0.04550616443157196, -0.00408304575830698, 0.1997055858373642, -0.15280313789844513, -0.044451478868722916, 0.009488674812018871, -0.14972223341464996, 0.016270549967885017, -0.029652565717697144, -0.14350159466266632, 0.2626824975013733, 0.2068207710981369, -0.09669453650712967, 0.20110221207141876, -0.14242282509803772, 0.016309557482600212, -0.0393604151904583, 0.004440643358975649, 0.031834717839956284, 0.13706688582897186, -0.2022550106048584, -0.17460490763187408, 0.1020154133439064, -0.025468390434980392, -0.02590014599263668, -0.0004882851499132812, -0.14382730424404144, 
0.018685609102249146, -0.12974298000335693, 0.05842459574341774, 0.16499581933021545, 0.01358093973249197, 0.06085801497101784, 0.05925331264734268, -0.01380754355341196, 0.16010254621505737, -0.09417814016342163, 0.05352580547332764, 0.09005631506443024, -0.11717560887336731, -0.03779997304081917, 0.1673978567123413, -0.06950286775827408, 0.049495670944452286, 0.21661683917045593, 0.13410814106464386, 0.19377510249614716, -0.15425662696361542, -0.05551692098379135, -0.08882606029510498, 0.061695635318756104, -0.006081506609916687, -0.04951466992497444, 0.04710645601153374, -0.0338895209133625, -0.053409673273563385, 0.11284356564283371, 0.04071606695652008, 0.06406151503324509, 0.0279096532613039, -0.2960873544216156, 0.0725909024477005, -0.03355734050273895, 0.15988247096538544, -0.09914394468069077, -0.05389289930462837, 0.06272858381271362, -0.01548574399203062, 0.0055405073799192905, -0.045557472854852676, -0.08434798568487167, 0.11706137657165527, -0.16040928661823273, -0.09320811182260513, -0.10343413800001144, 0.028368918225169182, 0.0021735099144279957, 0.126850888133049, -0.1510598063468933, -0.08297707140445709, -0.03636748343706131, -0.1001020073890686, -0.09269119054079056, 0.0725570023059845, 0.14119553565979004, 0.008224312216043472, 0.04204339534044266, -0.0435686856508255, 0.0016280439449474216, -0.04407628998160362, -0.05764922872185707, 
0.13367801904678345, -0.10527735203504562, 0.016267146915197372, -0.0568762868642807, 0.05073060095310211, 0.04959474876523018, 0.05921070650219917, -0.10033292323350906, -0.07943905144929886, -0.17625486850738525, 0.12994857132434845, 0.013543084263801575, -0.07176128774881363, -0.18158069252967834, 0.06563427299261093, -0.10793028026819229, 0.09185314923524857, 0.049497853964567184, 0.07787605375051498, 0.1604207456111908, -0.1653079390525818, -0.06188509613275528, -0.004524356219917536, 0.020016254857182503, -0.18980810046195984, 0.0028871537651866674, 0.029978884384036064, -0.03088453784584999, -0.04007731378078461, 0.06696447730064392, 0.0773467868566513, -0.0786045715212822, 0.09668813645839691, -0.03502973914146423, 0.08249063789844513, -0.053231142461299896, 0.003834720700979233, -0.06749983876943588, 0.012276760302484035, 0.09351843595504761, 0.019707489758729935, 0.03806902468204498, -0.013501561246812344, 0.02109137736260891, 0.13946300745010376, -0.008850648999214172, -0.11795537918806076, -0.13702790439128876, 0.052122846245765686, -0.12687720358371735, -0.09987340867519379, -0.08767705410718918, 0.04973742365837097, -0.14000628888607025, -0.05564294382929802, 0.06287137418985367, 0.06730988621711731, 0.013562534004449844, 0.10781596601009369, -0.06353281438350677, 0.08838960528373718, 0.028326397761702538, 0.1651725172996521, -0.0532003678381443, 
0.08950050920248032, -0.05930028483271599, -0.08840440958738327, 0.14764511585235596, 0.12383392453193665, -0.09204205125570297, -0.013569378294050694, -0.039382822811603546, 0.05496995523571968, 0.07744499295949936, 0.12169613689184189, 0.07326356321573257, 0.046174462884664536, 0.009684162214398384, 0.009037559852004051, 0.131333127617836, -0.1164553314447403, 0.021053681150078773, -0.05810191109776497, 0.058561474084854126, 0.06448846310377121, -0.07509969174861908, -0.1483781486749649, 0.015090188011527061, -0.15134143829345703, -0.1325940638780594, -0.11813076585531235, -0.11866793781518936, 0.0844707116484642, -0.04172263666987419, 0.03855001926422119, 0.0750572606921196, 0.0016410700045526028, -0.07735788822174072, -0.0263021569699049, 0.1523188203573227, -0.06300700455904007, 0.041352856904268265, -0.14337749779224396, 0.09087556600570679, 0.06325656920671463, -0.11819712817668915, -0.02985535003244877, -0.12337534874677658, -0.00996508076786995, -0.020567571744322777, -0.08638551831245422, -0.061672013252973557, 0.019505735486745834, -0.15457257628440857, 0.10145741701126099, -0.1011955663561821, -0.1190381869673729, -0.1347084790468216, -0.013829274103045464, -0.08387811481952667, 0.053671933710575104, 0.12764021754264832, -0.08727265894412994, 0.10822752863168716, -0.0030864947475492954, -0.1610654890537262, 0.11379200965166092, -0.12448189407587051, 
0.12011063098907471, -0.11515723168849945, 0.22596301138401031, 0.12449906021356583, -0.03836539760231972, 0.06149742752313614, -0.10690168291330338, -0.03511457517743111, 0.1872096061706543, 0.09218236804008484, 0.2231115996837616, -0.05941120535135269, -0.18589268624782562, -0.04591958969831467, 0.12429589033126831, -0.08242908120155334, 0.04759484529495239, 0.221162348985672, 0.18718190491199493, -0.049028974026441574, -0.26366788148880005, -0.04025706276297569, -0.18512865900993347, -0.004415047820657492, -0.10078023374080658, -0.1165093407034874, -0.027092568576335907, 0.12176057696342468, -0.03785710409283638, 0.046965342015028, 0.26626497507095337, 0.17486102879047394, 0.21755535900592804, -0.36872053146362305, 0.08953937143087387, 0.16150738298892975, -0.09404537826776505, -0.17459748685359955, -0.1057479977607727, -0.04419925808906555, -0.05649377405643463, 0.013357537798583508, -0.19414633512496948, -0.1863243132829666, 0.15459194779396057, -0.15506143867969513, 0.07682998478412628, -0.1713702231645584, -0.043115973472595215, -0.14526091516017914, 0.044469937682151794, -0.11338942497968674, -0.15700970590114594, 0.08172067254781723, -0.07886762171983719, 0.02779410034418106, -0.02453463152050972, 0.05361129716038704, -0.040446747094392776, 0.10741933435201645, -0.13650305569171906, -0.16069737076759338, 0.2924943268299103, 0.04728280007839203, 
0.11599075794219971, -0.049249421805143356, 0.046252455562353134, 0.061353255063295364, 0.05433396250009537, 0.13949421048164368, 0.11755247414112091, -0.08252877742052078, 0.022063301876187325, 0.12185756117105484, 0.15477272868156433, 0.04613122716546059, 0.03188440576195717, 0.07981783896684647, 0.06515340507030487, -0.02317454293370247, 0.052949272096157074, 0.16338646411895752, 0.010265475139021873, -0.03136143460869789, -0.10125160962343216, 0.0337643139064312, 0.09931256622076035, 0.0976947620511055, -0.122896209359169, 0.09493686258792877, -0.07340925186872482, -0.05592427775263786, 0.06819194555282593, -0.06332796812057495, -0.07763068377971649, -0.11853406578302383, 0.09284012764692307, -0.04788900911808014, -0.09232866764068604, -0.09020829945802689, 0.07733092457056046, 0.04625408351421356, 0.059244733303785324, 0.1447262465953827, 0.02704739011824131, 0.02770306169986725, -0.02317950688302517, -0.12991873919963837, 0.04229258373379707, -0.10771125555038452, -0.04201890528202057, -0.06423870474100113, 0.07580021768808365, -0.07897672802209854, 0.04820998013019562, -0.07658687978982925, -0.04323721304535866, 0.027827007696032524, -0.09798769652843475, -0.018768833950161934, 0.1167411357164383, 0.08711229264736176, -0.051725633442401886, -0.021784989163279533, 0.056079693138599396, -0.08736127614974976, 0.10102728754281998, 0.017856962978839874, 
0.06474599987268448, -0.046481888741254807, -0.11717252433300018, 0.05968344584107399, 0.0930597111582756, -0.07115225493907928, 0.09415687620639801, -0.085746169090271, 0.12266884744167328, 0.06718147546052933, -0.07541891187429428, -0.08499331027269363, 0.12626482546329498, 0.05358574166893959, 0.17576263844966888, -0.058890148997306824, 0.01888473704457283, -0.038294125348329544, 0.03868412598967552, -0.0661674365401268, -0.11528711020946503, -0.07605806738138199, -0.09178781509399414, 0.1616007387638092, 0.03950352221727371, -0.0035593200009316206, -0.03858936205506325, 0.03772224858403206, 0.11665114015340805, 0.005095397587865591, 0.08229416608810425, 0.033940188586711884, 0.031133286654949188, 0.04476504027843475, 0.032100386917591095, -0.014345620758831501, 0.11667510867118835, 0.05212734267115593, 0.06043176352977753, 0.03990150988101959, -0.1186101958155632, 0.07101008296012878, -0.04799029603600502, -0.11966519057750702, -0.09716098755598068, 0.1261609047651291, -0.1568971574306488, 0.035901349037885666, -0.04847300425171852, -0.10957954078912735, 0.04754594340920448, -0.09171351790428162, -0.07890164107084274, 0.03241227939724922, -0.021666167303919792, -0.04489567130804062, 0.0543811209499836, 0.0493735708296299, -0.0387444943189621, -0.010545189492404461, 0.1249830424785614, -0.04820095747709274, -0.09023036807775497, -0.12552180886268616, 
0.16066567599773407, -0.03059125877916813, 0.13481326401233673, 0.08358610421419144, 0.14736010134220123, 0.17777717113494873, -0.055520396679639816, -0.10929688066244125, 0.10698499530553818, -0.13461053371429443, 0.2327703982591629, 0.10115975141525269, 0.223201721906662, 0.021283017471432686, -0.14933311939239502, 0.12727299332618713, -0.022019637748599052, 0.16039666533470154, 0.154121994972229, 0.07285239547491074, -0.14253920316696167, 0.0938442125916481, 0.07754473388195038, -0.1740783154964447, 0.0552719384431839, -0.022830670699477196, 0.08440864831209183, 0.06008482351899147, 0.04468102380633354, -0.04906456917524338, -0.1159672737121582, 0.11703129857778549, 0.09602893888950348, -0.034571193158626556, -0.11393627524375916, 0.09370879828929901, 0.09302552789449692, 0.0061176847666502, -0.1974429339170456, -0.1903436779975891, -0.15424783527851105, -0.1597689837217331, -0.22097256779670715, -0.07318271696567535, 0.07989675551652908, -0.10078033059835434, 0.03666473552584648, -0.11125672608613968, -0.15810705721378326, -0.07308027893304825, 0.029840946197509766, 0.06229285150766373, 0.177565336227417, 0.014425637200474739, 0.0009260755614377558, 0.016055194661021233, 0.05653490871191025, -0.2215368002653122, 0.09597182273864746, -0.11913500726222992, -0.2395651787519455, -0.22777916491031647, 0.2535454332828522, 0.013188607059419155, 
0.18520423769950867, -0.13151344656944275, 0.19261839985847473, -0.10570540279150009, 0.015211786143481731, 0.059803541749715805, 0.0025846799835562706, -0.10933031886816025, 0.23289453983306885, -0.0336071141064167, -0.04357364773750305, 0.04405588284134865, 0.004508159123361111, 0.026909222826361656, 0.08511561155319214, -0.07607804983854294, -0.14871010184288025, 0.23560909926891327, -0.06718288362026215, 0.1388051062822342, -0.031400375068187714, 0.022843141108751297, -0.1640094369649887, 0.001040325383655727, -0.10024239867925644, 0.0923791378736496, 0.12795978784561157, 0.11521269381046295, -0.11731520295143127, -0.08771675825119019, -0.11046257615089417, -0.0029619631823152304, 0.2094816416501999, -0.052094683051109314, 0.047129396349191666, 0.07595031708478928, 0.07112529873847961, -0.03585556522011757, -0.021917207166552544, -0.10889897495508194, -0.05628467723727226, -0.0928938090801239, -0.09026698023080826, -0.0694042220711708, -0.0943181961774826, 0.08993086218833923, 0.037414174526929855, 0.04457143321633339, 0.12214260548353195, 0.025074036791920662, -0.10014340281486511, -0.04678003862500191, -0.012624469585716724, -0.02357979118824005, 0.008416752330958843, -0.007731713820248842, 0.009964597411453724, 0.09093325585126877, -0.039825860410928726, 0.04980511963367462, 0.09164946526288986, -0.1596890240907669, -0.010313443839550018, -0.07600857317447662, 
0.07855265587568283, -0.11714441329240799, -0.04434298723936081, 0.08900464326143265, -0.06509657949209213, 0.025938764214515686, 0.012490040622651577, -0.09945900738239288, 0.046692728996276855, -0.18501384556293488, 0.07632622867822647, -0.0012450182111933827, 0.06413540244102478, -0.07454518228769302, 0.013126485049724579, -0.07989520579576492, -0.10142045468091965, -0.09105775505304337, 0.1360829621553421, 0.09046640992164612, -0.032419927418231964, 0.01782333478331566, -0.018255876377224922, -0.016261162236332893, -0.058640968054533005, 0.0237729474902153, -0.055267345160245895, 0.023322757333517075, -0.04471270367503166, 0.120649553835392, 0.12136732786893845, 0.07147365063428879, 0.07479443401098251, -0.16662833094596863, 0.010721016675233841, -0.05661673843860626, -0.005427740979939699, -0.1244894489645958, -0.10294762998819351, -0.1306145042181015, -0.11925815790891647, 0.08171529322862625, -0.03113306686282158, -0.03187357634305954, 0.07089058309793472, 0.008000309579074383, 0.1028793603181839, 0.007059620227664709, -0.17678092420101166, 0.0042089237831532955, 0.05745066702365875, 0.17707273364067078, 0.03937027230858803, 0.16465607285499573, -0.0007316049304790795, 0.022539857774972916, 0.10030968487262726, 0.016303708776831627, 0.09269987046718597, -0.2018822878599167, -0.19413253664970398, -0.09875059127807617, 0.12265776842832565, -0.045102912932634354, 
0.05208715423941612, -0.11149890720844269, 0.02126694656908512, -0.06172681227326393, -0.10074890404939651, 0.18157754838466644, 0.1256369799375534, -0.14185890555381775, 0.2135135978460312, -0.1881721466779709, 0.23248276114463806, 0.16531836986541748, 0.19817528128623962, -0.08106803894042969, -0.15424151718616486, -0.06871264427900314, -0.0772567018866539, -0.030778558924794197, 0.07007814943790436, 0.07154831290245056, -0.1789088249206543, 0.04361705854535103, -0.0616253986954689, 0.10959523916244507, -0.1529935896396637, -0.0021125783678144217, 0.0680999681353569, 0.2030867338180542, -0.13648787140846252, -0.08255787938833237, -0.03721841797232628, 0.1751870959997177, 0.09040196239948273, 0.0012930331286042929, -0.07102818787097931, 0.1455533504486084, 0.06290952116250992, -0.041905805468559265, -0.09230143576860428, 0.01384592242538929, 0.010808274149894714, -0.1604354828596115, -0.027344893664121628, -0.15153025090694427, 0.05369620397686958, -0.02233482524752617, 0.02290034294128418, -0.02038552425801754, -0.04736519232392311, -0.0056067584082484245, -0.04178384318947792, -0.10344253480434418, -0.08109503984451294, -0.14120154082775116, -0.1073143258690834, -0.08415944874286652, 0.045033738017082214, -0.18040098249912262, 0.07094237208366394, 0.09823140501976013, -0.1152132973074913, -0.1531430184841156, 0.25094664096832275, -0.10097493976354599, 
0.13597369194030762, 0.01092307735234499, 0.012020689435303211, 0.019985519349575043, 0.110478475689888, 0.07538735866546631, 0.02713610604405403, -0.04351380839943886, -0.0687340795993805, 0.07655072957277298, 0.14372359216213226, 0.09631054848432541, 0.04579359292984009, -0.10249266773462296, 0.17096775770187378, 0.10956825315952301, -0.11357846111059189, -0.023675978183746338, -0.10498227179050446, 0.11307981610298157, -0.007425140589475632, -0.009947234764695168, -0.04154006019234657, -0.08544127643108368, -0.011635638773441315, -0.1844954788684845, 0.11782892793416977, 0.04542595520615578, -0.03454289957880974, -0.05479763448238373, 0.06312958896160126, -0.12427318841218948, -0.01695663295686245, -0.10625685006380081, -0.00018904013268183917, 0.08264987170696259, 0.11115701496601105, -0.16701731085777283, 0.008208067156374454, 0.05148596316576004, -0.08698627352714539, -0.02374330721795559, 0.009454659186303616, 0.03567679971456528, -0.05677349865436554, -0.025672880932688713, -0.0012247298145666718, -0.03200993686914444, -0.05448107793927193, -0.06331060081720352, -0.012084072455763817, -0.12474425137042999, -0.03190801665186882, -0.13954930007457733, 0.02326657623052597, -0.006171391811221838, 0.059246327728033066, -0.01862928830087185, 0.07365415245294571, -0.0710582360625267, 0.09377443045377731, -0.030819503590464592, 0.03152747079730034, -0.11490006744861603, 
0.10865791887044907, -0.01490465272217989, -0.08535540848970413, -0.01778520829975605, -0.1152559295296669, 0.02891051024198532, -0.06278347969055176, -0.13338877260684967, 0.0025578211061656475, 0.0013640474062412977, 0.19793446362018585, -0.03670423850417137, -0.03927866369485855, 0.12100282311439514, 0.04769691452383995, -0.21303990483283997, -0.12842386960983276, -0.0489768348634243, -0.04051520302891731, -0.0677635669708252, 0.05578238517045975, -0.11058761179447174, -0.0064882333390414715, 0.04993044212460518, 0.05764045566320419, -0.06084195896983147, -0.07593533396720886, 0.010290657170116901, 0.012834782712161541, -0.13287562131881714, -0.04503365978598595, 0.14672018587589264, 0.03791023790836334, -0.07382965832948685, 0.14827090501785278, 0.0431361049413681, -0.006041054148226976, 0.08774923533201218, -0.182030588388443, -0.12286485731601715, -0.018427446484565735, -0.1085069477558136, -0.0018313712207600474, 0.06743812561035156, 0.00451658945530653, -0.06662297993898392, -0.11808966100215912, 0.05153185501694679, -0.10877285152673721, 0.03963201865553856, -0.0023140637204051018, 0.06308036297559738, 0.047096673399209976, -0.022084670141339302, 0.0568949393928051, -0.06083347275853157, -0.009045951068401337, -0.11924311518669128, 0.013073835521936417, -0.07980470359325409, 0.10750593990087509, 0.06178718060255051, 0.10805339366197586, -0.026991091668605804, 
0.13385403156280518, 0.07179250568151474, -0.07655877619981766, -0.003728280309587717, 0.023510321974754333, 0.04763484746217728, 0.0616639144718647, -0.05698399618268013, 0.11627867817878723, -0.020538149401545525, 0.1477796882390976, -0.1163783073425293, -0.06447844207286835, 0.148630291223526, 0.031183592975139618, -0.19328811764717102, -0.05442659556865692, 0.18145029246807098, 0.04978146776556969, 0.11347531527280807, -0.11816578358411789, -0.17514044046401978, -0.10604816675186157, 0.1373627483844757, -0.1965513378381729, 0.12531542778015137, 0.07291780412197113, 0.11818832904100418, -0.032672781497240067, -0.03746740147471428, -0.08988472074270248, -0.04999749734997749, 0.09547867625951767, 0.06705452501773834, 0.05292614921927452, -0.1298656463623047, 0.05888708308339119, -0.10991735756397247, -0.03179596737027168, -0.025632355362176895, -0.0409090593457222, -0.06066795811057091, 0.01637403666973114, -0.11993192881345749, -0.012938128784298897, -0.13340476155281067, -0.014617265202105045, 0.06143714860081673, 0.06219993904232979, -0.040585339069366455, -0.017085175961256027, 0.04299550876021385, 0.005527219269424677, -0.05508892610669136, -0.010909976437687874, 0.10293909162282944, 0.00846162997186184, 0.012326288037002087, -0.1323263794183731, 0.05779562145471573, 0.00191965838894248, 0.014410827308893204, -0.017790362238883972, 0.1347896158695221, 
0.10656587779521942, 0.07880929112434387, 0.13560424745082855, 0.005453372374176979, 0.040070418268442154, -0.0331452302634716, 0.06522872298955917, 0.05141951143741608, -0.06955572217702866, -0.15268822014331818, 0.010409239679574966, 0.04184453934431076, 0.057291436940431595, -0.020280836150050163, 0.050330210477113724, 0.0865652784705162, -0.05462409555912018, 0.06752220541238785, 0.05623037740588188, 0.02402605675160885, -0.01858486235141754, -0.005616124719381332, -0.05178061127662659, -0.06462273001670837, -0.029853273183107376, -0.029522418975830078, 0.02257699891924858, 0.09757434576749802, 0.11701392382383347, 0.025205381214618683, -0.08831749856472015, 6.913205288583413e-05, -0.0683203712105751, 0.008797775954008102, -0.004087028093636036, -0.10939858108758926, -0.07663081586360931, -0.12490636110305786, 0.014377523213624954, 0.09309820085763931, -0.07971861213445663, 0.020383860915899277, -0.08298765867948532, -0.0809507668018341, 0.1549626737833023, -0.1352868527173996, 0.06787990033626556, -0.02365732379257679, -0.1497011035680771, -0.07701542228460312, -0.08189205080270767, -0.11430445313453674, -0.05490240454673767, 0.08043284714221954, 0.0035683184396475554, -0.09105993062257767, 0.09753314405679703, -0.1757509559392929, -0.12967735528945923, -0.06440248340368271, -0.06517566740512848, 0.019797848537564278, 0.20327503979206085, -0.024684494361281395, 
-0.10964754968881607, 0.06668540835380554, 0.17751748859882355, 0.07717359811067581, -0.031317055225372314, 0.017884694039821625, 0.028173943981528282, -0.008573110215365887, -0.05506177619099617, -0.21670001745224, 0.1755111664533615, -0.08441971987485886, -0.028311947360634804, -0.050582628697156906, -0.0007087794947437942, 0.10451094061136246, 0.05135386809706688, 0.1505161076784134, -0.10044969618320465, -0.06006490811705589, -0.04303164780139923, 0.09897256642580032, -0.08879411965608597, 0.16134589910507202, 0.053796473890542984, -0.0662592351436615, -0.012073679827153683, 0.09236746281385422, 0.04639130458235741, 0.022234812378883362, 0.10687083005905151, 0.15688709914684296, 0.005057514179497957, -0.046038709580898285, -0.08641856163740158, -0.025786319747567177, 0.08871126919984818, 0.053521279245615005, -0.021286945790052414, 0.061216261237859726, -0.06743225455284119, -0.08070030063390732, 0.07131277024745941, -0.07322751730680466, -0.036979347467422485, -0.04520439729094505, -0.09584333002567291, -0.009889618493616581, 0.03701751306653023, 0.038288433104753494, 0.03734796494245529, 0.04422834515571594, 0.17192760109901428, 0.002555826213210821, 0.04311119392514229, 0.08191362023353577, 0.043449342250823975, 0.02339475229382515, -0.12610912322998047, -0.16629348695278168, 0.03623747453093529, 0.0483696348965168, 0.17733274400234222, -0.12965117394924164, 
0.07789429277181625, 0.01459680125117302, 0.08029402792453766, -0.02781684324145317, 0.06815417110919952, 0.06210491806268692, 0.043520789593458176, 0.07842721790075302, -0.05136236175894737, 0.09023696929216385, 0.10848066955804825, 0.049227334558963776, 0.06034668907523155, -0.02414521761238575, -0.06582264602184296, 0.022775378078222275, -0.0964566320180893, -0.00042412272887304425, 0.1453159898519516, -0.052772726863622665, 0.056229304522275925, 0.0019696096424013376, 0.04152961075305939, -0.0881015881896019, -0.1286868155002594, -0.09155081957578659, -0.08032718300819397, 0.033564090728759766, 0.002807119395583868, -0.031028516590595245, -0.03157728537917137, 0.06560251861810684, -0.016420766711235046, -0.04785175248980522, 0.024000929668545723, 0.08925805240869522, -0.10703100264072418, -0.14349335432052612, 0.0975903645157814, 0.04866386204957962, -0.07873835414648056, -0.0901053324341774, -0.12570171058177948, -0.12994341552257538, 0.014868311583995819, -0.036889076232910156, 0.011961935088038445, 0.04309435188770294, 0.016569124534726143, 0.016180390492081642, 0.067698635160923, 0.052056968212127686, -0.046333130449056625, -0.11671660095453262, -0.11313147842884064, -0.01987043023109436, 0.021168099716305733, -0.020985137671232224, -0.015234503895044327, -0.08470049500465393, 0.025737373158335686, 0.08680352568626404, -0.11856196820735931, 0.044919516891241074, 
-0.012767098844051361, 0.031190209090709686, 0.13309845328330994, 0.10615159571170807, 0.18400269746780396, 0.06943904608488083, -0.020019304007291794, -0.07361890375614166, -0.0715988352894783, 0.19298036396503448, -0.08827505260705948, 0.019301937893033028, 0.21091106534004211, 0.02149687521159649, -0.01625746116042137, -0.05501233786344528, -0.10378029197454453, 0.2564014494419098, -0.039033327251672745, 0.02911529131233692, -0.15882395207881927, 0.04924846440553665, -0.1297753006219864, 0.08474713563919067, -0.14767390489578247, -0.003022944089025259, 0.13016511499881744, -0.02961966209113598, -0.20863139629364014, -0.11811625957489014, -0.03083898313343525, -0.17232726514339447, 0.010631797835230827, 0.22560462355613708, -0.14359189569950104, -0.10885969549417496, 0.10579890757799149, 0.042589038610458374, 0.06499000638723373, 0.07343583554029465, -0.07483097165822983, -0.2921101152896881, 0.007808574941009283, -0.18574023246765137, -0.07164165377616882, -0.13580580055713654, -0.22243595123291016, 0.09671784937381744, 0.08672819286584854, -0.05478953570127487, -0.07439609616994858, 0.05984928458929062, 0.016321679577231407, 0.02644086256623268, -0.053080882877111435, 0.1854088306427002, 0.21143487095832825, -0.03699305281043053, -0.0770687386393547, -0.07851888984441757, 0.03564736619591713, -0.03514915332198143, 0.0897214487195015, -0.016095269471406937, 
-0.0005140867433510721, -0.07516264170408249, 0.043402913957834244, -0.08367687463760376, 0.08684197068214417, 0.09332413226366043, -0.025286156684160233, -0.018337294459342957, 0.04207876697182655, 0.05485348775982857, 0.008923162706196308, -0.0758957788348198, 0.04043477028608322, -0.004336797632277012, -0.1335550993680954, 0.0032109541352838278, -0.16310864686965942, 0.0026155090890824795, -0.10462763905525208, 0.15926527976989746, -0.06419458240270615, -0.06907035410404205, -0.05753070116043091, 0.05944899469614029, -0.0470440573990345, 0.02868231199681759, 0.09664280712604523, 0.10567878931760788, 0.010019773617386818, 0.06894614547491074, 0.06799762696027756, 0.013075466267764568, 0.08914417773485184, -0.1874038428068161, 0.02291986718773842, 0.043480388820171356, 0.060751255601644516, -0.0820729210972786, 0.004603284411132336, -0.12049922347068787, -0.048190388828516006, 0.040791045874357224, 0.08104152232408524, 0.07333672046661377, 0.12041585892438889, 0.0054429578594863415, -0.011798749677836895, -0.0829579308629036, -0.17932987213134766, -0.046817462891340256, -0.01871418207883835, 0.054197464138269424, -0.016241000965237617, -0.002103587845340371, 0.061243925243616104, 0.11145012080669403, 0.1584777683019638, -0.044427305459976196, -0.08803047239780426, -0.1169787272810936, -0.15882402658462524, -0.18825213611125946, 0.03325863927602768, -0.02630254253745079, 
0.1081266924738884, 0.0349801741540432, 0.07559520751237869, 0.09395100176334381, 0.02892724797129631, 0.12148655205965042, 0.07588568329811096, -0.16467230021953583, -0.00891277939081192, -0.017770817503333092, 0.11580714583396912, 0.18608887493610382, 0.19167880713939667, -0.17599600553512573, 0.07451875507831573, 0.0005385592812672257, -0.071202352643013, 0.11044465005397797, -0.11941545456647873, 0.06394411623477936, -0.1288146823644638, 0.10368847846984863, 0.030490310862660408, 0.08010157197713852, 0.030910905450582504, -0.025415483862161636, 0.0995413288474083, -0.059922996908426285, 0.10535012185573578, 0.03739465773105621, -0.07808533310890198, 0.10302016884088516, 0.06706321239471436, -0.05718984454870224, -0.06057388707995415, -0.054244715720415115, -0.003478553146123886, -0.17043758928775787, -0.10537898540496826, 0.06949461996555328, -0.14326411485671997, -0.14466135203838348, -0.020449170842766762, -0.07294407486915588, 0.026264984160661697, 0.04890293627977371, -0.10113893449306488, 0.05441432446241379, 0.008746662177145481, 0.06582067906856537, 0.02222808636724949, -0.13398310542106628, -0.07305975258350372, 0.08886981755495071, -0.1536533534526825, 0.04101622849702835, 0.10415149480104446, -0.15488313138484955, -0.17681348323822021, 0.01466487068682909, 0.0450982041656971, -0.013736541382968426, 0.12416859716176987, -0.07880377024412155, 
-0.045306481420993805, 0.051139894872903824, -0.0062243398278951645, 0.15447501838207245, 0.1262446939945221, -0.07865490019321442, 0.12991118431091309, 0.05048457533121109, 0.10988352447748184, -0.02299271523952484, 0.07953411340713501, 0.13140031695365906, -0.06331312656402588, -0.12503917515277863, 0.11697447299957275, 0.01052045077085495, -0.023748446255922318, -0.01987752504646778, -0.032493092119693756, 0.17732346057891846, 0.054916225373744965, 0.012367045506834984, -0.0010169722372666001, 0.06101217493414879, -0.04632112756371498, -0.044327959418296814, 0.06667298823595047, 0.01915794052183628, -0.13504558801651, 0.05622503161430359, -0.024191508069634438, 0.087339386343956, 0.058362022042274475, -0.032605674117803574, 0.06148552894592285, -0.041601166129112244, -0.048432670533657074, 0.023047834634780884, -0.08160726726055145, -0.08524247258901596, -0.042020298540592194, -0.005757559556514025, -0.0553201325237751, -0.10910005122423172, 0.0010452581336721778, -0.11666183918714523, -0.038532473146915436, 0.10638601332902908, 0.0994705781340599, 0.05636274069547653, -0.050001829862594604, 0.007152056321501732, -0.13876883685588837, -0.16844868659973145, -0.11799945682287216, 0.1252896934747696, 0.07269608974456787, -0.011144311167299747, -0.14769603312015533, -0.04346797242760658, 0.01125933788716793, -0.11617273092269897, -0.042767032980918884, -0.12647882103919983, 
-0.08962718397378922, -0.12537619471549988, 0.20727337896823883, 0.014638165943324566, 0.13413414359092712, 0.058056239038705826, 0.023487767204642296, 0.0033767633140087128, 0.11457812041044235, -0.11349073797464371, 0.01864618808031082, 0.045521605759859085, 0.15159793198108673, 0.04896719008684158, -0.029257841408252716, -0.03601519763469696, -0.03741002082824707, 0.14667484164237976, -0.08633574098348618, 0.19046664237976074, -0.053394511342048645, -0.02056291326880455, -0.048356518149375916, 0.07288798689842224, -0.09674063324928284, 0.1645733267068863, -0.02545776590704918, 0.029326926916837692, -0.08698693662881851, -0.10091855376958847, 0.1326957643032074, -0.12721839547157288, -0.06759633123874664, 0.09979329258203506, -0.14347809553146362, 0.13514740765094757, 0.10522043704986572, 0.026241296902298927, -0.08161678165197372, 0.02047862485051155, -0.12005075812339783, 0.033724598586559296, 0.16269390285015106, -0.084080770611763, -0.06019296124577522, -0.16055713593959808, 0.012337430380284786, 0.052232060581445694, -0.08176591992378235, -0.11089573055505753, 0.13791362941265106, -0.09313361346721649, -0.04788203164935112, -0.08083555847406387, -0.10646169632673264, 0.10204333811998367, 0.12802596390247345, -0.01606081984937191, 0.05998004972934723, -0.15953387320041656, -0.03548983484506607, -0.08427448570728302, 0.001522821607068181, -0.08138450980186462, 
0.15603607892990112, 0.11572219431400299, 0.21439401805400848, 0.022970696911215782, 0.061503589153289795, -0.07606729865074158, 0.13147826492786407, 0.14717480540275574, -0.17541678249835968, 0.10537350922822952, 0.24317140877246857, 0.11643233150243759, -0.1865324079990387, 0.1084168404340744, 0.04070521891117096, -0.15434899926185608, -0.01685653254389763, 0.03187773376703262, -0.027962779626250267, -0.05471789836883545, 0.13175815343856812, 0.08087500929832458, -0.10583476722240448, 0.01897001639008522, 0.0674496591091156, -0.12723445892333984, 0.1789524257183075, 0.1262551248073578, 0.10983103513717651, -0.16220718622207642, -0.12240590155124664, 0.08602452278137207, -0.05388495698571205, 0.18580235540866852, 0.11761996150016785, -0.02848413586616516, -0.005602873396128416, -0.1509907841682434, -0.15085111558437347, -0.15683892369270325, 0.03007788024842739, -0.08199656754732132, -0.2830485701560974, 0.08812098205089569, 0.09114894270896912, -0.16668154299259186, -0.08313548564910889, 0.018088797107338905, 0.061729203909635544, -0.08481419831514359, -0.09181660413742065, -0.140199676156044, -0.08330357819795609, 0.07372628897428513, -0.017072806134819984, 0.08188888430595398, -0.037007808685302734, -0.1924283653497696, 0.08551117777824402, 0.09845724701881409, -0.21453259885311127, 0.0218950342386961, 0.009875205345451832, 0.01022688951343298, 
-0.09168686717748642, -0.07128815352916718, -0.10291748493909836, -0.07904091477394104, -0.1672915667295456, 0.12097526341676712, 0.027640387415885925, -0.1536061018705368, 0.06008618324995041, -0.12932740151882172, -0.014372370205819607, 0.040936488658189774, 0.06840276718139648, 0.07304792106151581, 0.11027863621711731, -0.21610821783542633, 0.07841035723686218, 0.11544625461101532, 0.1958378106355667, 0.09839677810668945, -0.07560406625270844, -0.018119992688298225, -0.03391662612557411, 0.08244160562753677, 0.03298366069793701, -0.08291946351528168, -0.05433797091245651, -0.0022146522533148527, 0.03899551182985306, 0.010980341583490372, 0.05919298529624939, 0.19051793217658997, 0.02137981727719307, 0.051046766340732574, 0.0493728369474411, -0.00047490635188296437, -0.05399522930383682, -0.09043844044208527, 0.03636671602725983, -0.10612504184246063, -0.13714627921581268, 0.011830740608274937, -0.11799058318138123, 0.08433672785758972, 0.13501714169979095, 0.14208953082561493, -0.14196011424064636, 0.05861266702413559, -0.12690295279026031, 0.0015354324132204056, -0.004654834978282452, 0.04076007381081581, 0.10067534446716309, 0.06568944454193115, -0.061783965677022934, -0.08277752995491028, 0.05538327991962433, -0.1553364247083664, -0.007823887281119823, -0.07260190695524216, -0.03724030405282974, -0.07760579138994217, 0.09642552584409714, -0.0063461787067353725, 
0.1792038530111313, -0.028741803020238876, 0.0045323725789785385, -0.08692284673452377, -0.04987608641386032, -0.09248463064432144, 0.17188537120819092, -0.15010590851306915, -0.06538282334804535, -0.11079832911491394, 0.0003821314894594252, 0.1857442557811737, -0.050290293991565704, 0.016174746677279472, 0.012399612925946712, 0.10581035912036896, -0.06687161326408386, -0.0366191528737545, 0.20157523453235626, 0.12124314904212952, -0.042131468653678894, -0.03458964824676514, -0.06931914389133453, -0.06593555212020874, 0.06429088860750198, -0.00995813962072134, 0.1617429107427597, 0.021893715485930443, -0.04405303671956062, -0.1163635402917862, -0.002224473748356104, -0.023520784452557564, -0.1598488986492157, 0.012433962896466255, 0.17477436363697052, 0.027530517429113388, 0.09964784979820251, -0.00353043619543314, -0.15119682252407074, 0.05859990790486336, -0.07921365648508072, -0.11857175827026367, -0.07180950790643692, 0.10434356331825256, 0.1936592012643814, 0.06499271839857101, -0.03329327329993248, -0.004398503806442022, 0.0446133092045784, 0.02853528968989849, 0.013520046137273312, -0.059231095016002655, -0.03231961652636528, 0.1515924483537674, 0.09977355599403381, 0.21919400990009308, 0.002663400722667575, -0.18230830132961273, -0.06418304890394211, 0.07222980260848999, -0.14496555924415588, 0.061419494450092316, 0.09302128106355667, -0.14767462015151978, 
0.12170591205358505, 0.058068715035915375, -0.042969901114702225, 0.011589474976062775, 0.028876805678009987, 0.033628109842538834, 0.013209461234509945, -0.0911514163017273, 0.14786773920059204, 0.06398613005876541, -0.07561033964157104, -0.005064900498837233, -0.09716381877660751, -0.08315064758062363, 0.1197194829583168, -0.16044975817203522, 0.05026533454656601, 0.06296099722385406, 0.045655496418476105, 0.011715705506503582, -0.0108441561460495, 0.02133338898420334, -0.0037886195350438356, -0.02431398816406727, -0.12837530672550201, -0.09739778190851212, -0.012865361757576466, 0.093471959233284, -0.024625414982438087, 0.04398687928915024, 0.02128496766090393, -0.060168419033288956, -0.022951994091272354, 0.017914708703756332, -0.11531879752874374, -0.014526508748531342, 0.16060525178909302, 0.047557249665260315, -0.047404177486896515, 0.11705883592367172, 0.016004562377929688, 0.07746287435293198, -0.01897425390779972, -0.13935402035713196, 0.07126680016517639, 0.0019823010079562664, -0.16319450736045837, -0.01919948309659958, 0.1566302478313446, -0.0390111468732357, 0.12139943987131119, 0.04599621519446373, 0.04865891486406326, -0.13736361265182495, 0.0027858747635036707, 0.11395826190710068, 0.12585780024528503, 0.08305053412914276, -0.06777775287628174, -0.01490815356373787, 0.1488366723060608, -0.11670685559511185, 0.0768207386136055, -0.12370041757822037, 
-0.005700006149709225, -0.11127568036317825, -0.02478250116109848, 0.10639669001102448, -0.030437136068940163, -0.019722720608115196, 0.10480042546987534, -0.1464487463235855, -0.032673537731170654, -0.12411364912986755, 0.08668612688779831, 0.16987869143486023, 0.15079598128795624, -0.15857066214084625, -0.0511617474257946, 0.18250766396522522, -0.08424663543701172, -0.06588976085186005, -0.015252454206347466, -0.02777561917901039, 0.08781471848487854, -0.054104045033454895, -0.1290462613105774, 0.03964545577764511, -0.12149535864591599, 0.14630921185016632, -0.0860198438167572, -0.06618441641330719, -0.016005048528313637, 0.067794069647789, -0.0272932518273592, 0.06603381782770157, -0.14362142980098724, 0.16058167815208435, -0.09958012402057648, 0.06835059076547623, -0.013673815876245499, -0.02561233937740326, 0.02285279706120491, 0.001652923529036343, 0.0676848292350769, -0.07079890370368958, -0.08401816338300705, -0.01433908473700285, -0.06502294540405273, -0.005324436817318201, 0.011786164715886116, 0.02882171981036663, -0.14374206960201263, 0.03707142919301987, 0.0966498851776123, -0.01766267791390419, -0.08714462071657181, -0.1568853110074997, -0.02000739797949791, -0.06237788870930672, 0.15467466413974762, -0.0008064010180532932, -0.12512502074241638, 0.025815417990088463, -0.1087927520275116, -0.14865878224372864, -0.027028562501072884, 0.007813028059899807, 
-0.04994780570268631, 0.02383958175778389, 0.04260220378637314, 0.0009870075155049562, 0.07996594905853271, -0.10728005319833755, 0.09709112346172333, 0.094731904566288, 0.036438535898923874, 0.01775948889553547, 0.02739153988659382, 0.07708296924829483, -0.06148505210876465, 0.06475159525871277, 0.11683934181928635, -0.08450537919998169, -0.07783955335617065, 0.02794043906033039, -0.1126331314444542, 0.09008277952671051, -0.07604489475488663, 0.09334085881710052, -0.06674070656299591, 0.16898873448371887, 0.12719321250915527, -0.018789976835250854, 0.11131227016448975, 0.14977867901325226, 0.10506606847047806, -0.07485391944646835, -0.033638641238212585, 0.14934369921684265, -0.009019702672958374, -0.19436095654964447, 0.0029731702525168657, -0.019882384687662125, -0.03613802790641785, -0.14355020225048065, -0.0619187168776989, -0.06246265769004822, -0.04636773467063904, -0.10772623866796494, 0.051918286830186844, -0.07381749898195267, 0.03255315124988556, 0.09908489137887955, -0.01916624791920185, -0.10228388011455536, -0.04271894693374634, -0.09700559824705124, 0.006418683100491762, -0.14888663589954376, 0.13824565708637238, 0.10240530222654343, 0.051694151014089584, 0.09311611950397491, -0.09690941870212555, -0.049726177006959915, 0.04946300759911537, -0.057267189025878906, -0.2103632092475891, 0.0410103015601635, -0.08865693211555481, 0.07397433370351791, 
0.006530508399009705, -0.023647110909223557, 0.06237136572599411, 0.11382823437452316, 0.05640017241239548, -0.008917488157749176, -0.0026921613607555628, 0.015028991736471653, 0.10490261018276215, 0.051905080676078796, -0.12736283242702484, 0.14467482268810272, 0.09041088819503784, 0.09850199520587921, -0.0932900607585907, 0.10847565531730652, -0.01874294877052307, 0.18034613132476807, -0.042043279856443405, 0.07792352885007858, 0.044565677642822266, 0.17031730711460114, -0.0408736914396286, 0.007887132465839386, -0.02715136669576168, 0.08154746890068054, -0.06509049236774445, 0.05622265487909317, -0.0036951336078345776, -0.1473097950220108, 0.07052909582853317, -0.19798192381858826, 0.04987357556819916, 0.1967744678258896, 0.030220555141568184, -0.042017124593257904, 0.04305310174822807, -0.07882671058177948, -0.008132070302963257, 0.002926547545939684, 0.035186007618904114, -0.21161960065364838, 0.19826559722423553, -0.05872918292880058, 0.05232946202158928, -0.04005136713385582, -0.1911899298429489, 0.1841031312942505, -0.01765986904501915, 0.0014201645972207189, 0.21235278248786926, -0.1121051087975502, -0.11979477107524872, -0.12223087251186371, -0.018364688381552696, 0.012736327014863491, 0.2244711071252823, -0.09816117584705353, -0.11454280465841293, 0.1716097891330719, 0.16038843989372253, -0.13205336034297943, -0.1258276402950287, -0.10183064639568329, 
-0.08256182074546814, 0.04842999577522278, 0.17570491135120392, -0.015143977478146553, 0.15738843381404877, 0.17181526124477386, 0.08793845027685165, -0.06723780184984207, -0.15145675837993622, 0.1116437241435051, -0.0391399972140789, -0.05899239331483841, 0.12483219802379608, 0.13809671998023987, -0.24229535460472107, 0.044598523527383804, 0.10501334816217422, 0.11543045938014984, -0.039457958191633224, 0.107324980199337, -0.05612670257687569, 0.08623959869146347, -0.03285834565758705, -0.09074711054563522, -0.0399482399225235, -0.0016082590445876122, 0.043921250849962234, 0.014909936115145683, -0.10259166359901428, -0.14848095178604126, -0.09231176972389221, -0.18679963052272797, -0.16924168169498444, 0.2097502201795578, 0.12296319752931595, 0.056722477078437805, 0.12561827898025513, 0.025910062715411186, 0.055198851972818375, -0.04059050604701042, 0.07656662911176682, 0.008860788308084011, 0.03716970980167389, -0.029624270275235176, -0.14233636856079102, 0.024965131655335426, 0.09846936911344528, -0.005124886520206928, 0.09256335347890854, -0.08586837351322174, 0.13396556675434113, -0.052302196621894836, -0.09910628944635391, -0.13936342298984528, 0.02524586021900177, 0.13010525703430176, -0.0536489263176918, -0.07832139730453491, -0.0623050183057785, 0.09184328466653824, -0.02504349872469902, 0.09762727469205856, -0.11115298420190811, -0.023078089579939842, 
0.15398523211479187, 0.04220990091562271, 0.07771425694227219, 0.052893076092004776, 0.06669449061155319, 0.1736868917942047, 0.12675730884075165, 0.024122221395373344, -0.11570246517658234, -0.1599949300289154, 0.10530299693346024, 0.10875152796506882, 0.07825171947479248, -0.0067120022140443325, 0.047018345445394516, 0.06972512602806091, 0.00788194127380848, -0.00702328234910965, -0.07414914667606354, 0.0863405391573906, -0.06843378394842148, 0.12886279821395874, 0.013218163512647152, -0.046102751046419144, -0.1047591045498848, 0.006508050486445427, 0.10172180831432343, 0.07563241571187973, -0.030275018885731697, -0.026895977556705475, -0.10463587194681168, -0.07707004994153976, -0.0929887592792511, 0.10392458736896515, -0.1562780737876892, 0.06950625032186508, -0.05362321436405182, 0.08338594436645508, -0.07059825211763382, -0.03970026597380638, -0.067972332239151, 0.0005519564729183912, -0.07436887919902802, -0.06857611984014511, -0.08958619087934494, -0.10366266220808029, -0.1112896129488945, -0.15461546182632446, 0.030750134959816933, -0.07165277004241943, 0.09837732464075089, 0.09924446046352386, 0.13846446573734283, -0.016111569479107857, 0.1018170714378357, 0.03368479385972023, 0.027254357933998108, -0.019840292632579803, 0.07399401068687439, 0.07472960650920868, -0.05926530435681343, -0.07888847589492798, -0.0011624357430264354, -0.06499490141868591, 
0.20067821443080902, 0.09527593106031418, 0.16162621974945068, -0.05083444342017174, 0.18135258555412292, 0.052139826118946075, 0.1580783724784851, -0.07256855815649033, -0.0948086678981781, 0.03808281943202019, 0.10494659096002579, 0.07063258439302444, 0.0012500928714871407, -0.16436666250228882, -0.014487020671367645, 0.040676794946193695, -0.09489567577838898, -0.031132979318499565, 0.10711973905563354, -0.03512559458613396, 0.09358105063438416, 0.11895811557769775, -0.037922848016023636, -0.014642029069364071, -0.09167146682739258, 0.1697273850440979, -0.02560509741306305, 0.11408457159996033, -0.1695949286222458, 0.09853064268827438, -0.18696999549865723, 0.0920342281460762, 0.04006443917751312, -0.04232995584607124, 0.028344038873910904, 0.1317952275276184, 0.06172364577651024, 0.02214265614748001, 0.025054508820176125, -0.010260241106152534, 0.03190157562494278, -0.02485346421599388, -0.044383369386196136, 0.005566198844462633, 0.13078370690345764, -0.155678391456604, -0.09894374758005142, 0.0557107999920845, -0.04844862222671509, -0.12465094774961472, -0.1560838669538498, -0.13394978642463684, 0.05601497367024422, -0.05291444808244705, -0.08354206383228302, -0.061347100883722305, -0.07804272323846817, -0.009349931962788105, 0.060551516711711884, 0.010717041790485382, -0.07417227327823639, -0.11887934803962708, 0.13523340225219727, -0.06464102864265442, 
0.09335348010063171, -0.11303260177373886, 0.08232804387807846, 0.0736902505159378, -0.04973224177956581, -0.10036193579435349, 0.1537943035364151, -0.1904696822166443, -0.06028904765844345, -0.09532773494720459, 0.1828693151473999, 0.0718882605433464, 0.1581360101699829, -0.07565335184335709, 0.012920756824314594, 0.03864845260977745, -0.17543639242649078, -0.009955496527254581, 0.15827825665473938, 0.06257346272468567, -0.13568301498889923, -0.07194642722606659, -0.028270330280065536, 0.07852689921855927, 0.04752863198518753, 0.01731340028345585, -0.009557542391121387, 0.08937163650989532, 0.16650211811065674, -0.15268920361995697, -0.11834190040826797, 0.028977183625102043, -0.00264128134585917, -0.1351202130317688, -0.04970688372850418, -0.034267548471689224, -0.00031310011399909854, -0.0971888080239296, -0.11582677811384201, -0.13972532749176025, 0.01291057001799345, -0.17955999076366425, 0.0855538547039032, -0.015149181708693504, 0.12250582128763199, 0.017294228076934814, -0.13131742179393768, -0.032864246517419815, -0.14195801317691803, -0.15855416655540466, -0.08802112936973572, 0.00028852722607553005, -0.08010704815387726, -0.00997671578079462, -0.036067891865968704, -0.043177731335163116, 0.0270631592720747, -0.023897994309663773, -0.20866109430789948, 0.11025504767894745, -0.0792873427271843, -0.03770190849900246, 0.1026744395494461, 0.050146326422691345, 
-0.01857036165893078, -0.04055492579936981, 0.16652143001556396, 0.1297542154788971, -0.07993326336145401, 0.033909715712070465, -0.08535634726285934, 0.07050123065710068, 0.050700996071100235, 0.08053963631391525, -0.06992744654417038, 0.1397656798362732, 0.05831761285662651, -0.10799305886030197, -0.01322490070015192, 0.05808465555310249, -0.08567601442337036, 0.048581305891275406, -0.07125847041606903, 0.1495475322008133, -0.171394482254982, 0.03275476396083832, -0.12661680579185486, -0.1070043221116066, -0.13672156631946564, 0.09226934611797333, -0.022785639390349388, 0.024112623184919357, -0.11893144249916077, -0.01092904806137085, 0.08345094323158264, -0.16964441537857056, -0.09858768433332443, 0.10188997536897659, 0.09316913038492203, 0.015699533745646477, 0.025641292333602905, 0.04253656789660454, -0.08655358105897903, -0.03326034173369408, -0.061286818236112595, 0.0684085413813591, 0.14419521391391754, -0.07152198255062103, 0.03823871538043022, -0.043436210602521896, -0.11407948285341263, -0.02716859057545662, 0.08621693402528763, -0.0675097107887268, -0.029293714091181755, -0.0683216005563736, 0.05382441356778145, -0.1227581650018692, -0.005381609313189983, -0.028247935697436333, 0.1708810180425644, 0.10608294606208801, -0.11387595534324646, -0.04834340140223503, 0.10518249869346619, 0.049659136682748795, -0.08980683982372284, -0.11922921985387802, 
0.15180595219135284, -0.10119681805372238, 0.09896467626094818, -0.062009938061237335, 0.06204273924231529, 0.012980700470507145, 0.10614277422428131, -0.03237247094511986, 0.12720902264118195, -0.03423392027616501, 0.0912117287516594, 0.09957610815763474, -0.028167670592665672, -0.07752229273319244, 0.04370243474841118, -0.0941418781876564, -0.008948374539613724, 0.15741629898548126, 0.00452410476282239, -0.07198594510555267, 0.08277452737092972, 0.12710072100162506, -0.16200128197669983, 0.1428346335887909, 0.0729723647236824, 0.030608169734477997, 0.08798952400684357, 0.06442879885435104, -0.03195241466164589, -0.06487497687339783, 0.009178453125059605, 0.1484212577342987, -0.06641927361488342, -0.13449719548225403, -0.06513487547636032, 0.055083997547626495, 0.05073923245072365, 0.09175469726324081, -0.07504817843437195, 0.024445820599794388, -0.08989917486906052, 0.007377282250672579, -0.03011365793645382, -0.11374038457870483, -0.008164607919752598, 0.10342595726251602, -0.07285167276859283, 0.06095636263489723, -0.09554046392440796, -0.015175442211329937, -0.13501207530498505, -0.06173223629593849, 0.03552566096186638, -0.12102184444665909, -0.08836591243743896, 0.04733612760901451, 0.0361827053129673, 0.01759549416601658, -0.1553184688091278, 0.07088269293308258, -0.039762601256370544, -0.13741672039031982, -0.042218245565891266, -0.14701148867607117, 
0.1135764792561531, -0.042402416467666626, 0.1628568172454834, -0.025674188509583473, -0.011950237676501274, -0.08270535618066788, 0.008287867531180382, -0.11686526238918304, 0.027951400727033615, -0.06413561850786209, 0.10480469465255737, -0.08032933622598648, -0.015442154370248318, -0.1114404946565628, -0.10812341421842575, -0.0181046761572361, -0.0375327430665493, 0.10158654302358627, 0.044291313737630844, -0.015498933382332325, 0.0850958451628685, 0.05916532129049301, 0.09165772050619125, 0.040112994611263275, -0.07328864187002182, 0.11315178871154785, -0.10944684594869614, 0.14846068620681763, 0.01754169724881649, 0.08320663124322891, 0.0947028398513794, -0.01707923412322998, 0.005035077221691608, 0.08265726268291473, -0.08738194406032562, -0.05662963539361954, -0.07239166647195816, 0.05619945377111435, -0.07830104231834412, -0.07492973655462265, -0.0236594807356596, -0.04423091933131218, 0.04805589094758034, -0.03817779943346977, 0.09948756545782089, -0.15543897449970245, -0.021394941955804825, -0.058673031628131866, -0.019352078437805176, -0.08384537696838379, -0.032855238765478134, -0.07538436353206635, 0.15959179401397705, 0.04602360725402832, -0.027217509225010872, 0.13310270011425018, 0.06207921728491783, -0.010244514793157578, -0.049115415662527084, 0.09956242889165878, 0.011274335905909538, -0.08333209156990051, 0.08088186383247375, 0.056024663150310516, 
0.2479424625635147, 0.036589667201042175, 0.12754778563976288, 0.030090920627117157, 0.2493344396352768, 0.019877774640917778, 0.06198978051543236, -0.09542661160230637, 0.030611541122198105, 0.16701214015483856, 0.3374985158443451, 0.17079202830791473, 0.10327157378196716, -0.16210521757602692, -0.0692705288529396, 0.03169351443648338, -0.07569363713264465, 0.08425601571798325, -0.06379249691963196, 0.18689177930355072, -0.08340450376272202, 0.04457723721861839, 0.00616467697545886, 0.047836169600486755, -0.11483205109834671, 0.18462853133678436, 0.1593206822872162, 0.05730130523443222, -0.13972710072994232, -0.1380036473274231, -0.1290656179189682, -0.013605287298560143, -0.16843603551387787, 0.22209064662456512, 0.07464028149843216, 0.12100746482610703, 0.000913913594558835, -0.021843014284968376, 0.08155769854784012, 0.03907445818185806, -0.18708652257919312, -0.1737767606973648, -0.003530563786625862, 0.0344950295984745, 0.12504327297210693, -0.1154252290725708, -0.060596171766519547, -0.015867799520492554, -0.015868131071329117, -0.10941369831562042, 0.03863505274057388, -0.07093994319438934, -0.06282946467399597, -0.10319884866476059, -0.038504768162965775, 0.07754580676555634, 0.0708051472902298, -0.04345155507326126, -0.15508849918842316, 0.07072519510984421, -0.26209932565689087, -0.060420356690883636, 0.12377584725618362, -0.05586538091301918, 
-0.09596127271652222, 0.10718278586864471, 0.0750085711479187, 0.027707776054739952, 0.06636489182710648, 0.1697254180908203, -0.07224072515964508, -0.09591458737850189, -0.07747615873813629, 0.09853722155094147, 0.0020950858015567064, 0.0030015134252607822, 0.04399678111076355, 0.09456800669431686, 0.0034527259413152933, 0.17769134044647217, 0.06661868840456009, 0.028096668422222137, -0.06984342634677887, 0.16731588542461395, 0.014397496357560158, -0.06933028250932693, 0.12406325340270996, -0.01829342730343342, 0.00454394007101655, 0.057274606078863144, -0.03066973201930523, 0.03800659626722336, 0.0660269632935524, -0.22941935062408447, 0.10561896860599518, 0.06268921494483948, 0.05180070549249649, 0.10488688200712204, 0.016190264374017715, -0.006599650252610445, 0.09655706584453583, -0.11931272596120834, 0.1227601021528244, 0.006780207622796297, -0.07079512625932693, -0.18692125380039215, -0.0029900847002863884, -0.0362938791513443, -0.0008688578382134438, -0.05052753910422325, -0.2189542055130005, 0.13572129607200623, -0.08409428596496582, -0.025514451786875725, -0.03270615637302399, -0.06182105839252472, -0.1350841075181961, -0.13256056606769562, 0.10285060107707977, 0.04994474723935127, 0.0985809937119484, -0.17419622838497162, -0.0970706194639206, 0.071308434009552, 0.11989305168390274, 0.06578986346721649, -0.15043291449546814, -0.12156999111175537, 
0.03320906311273575, 0.04892536997795105, 0.18988510966300964, 0.04422248154878616, -0.02816093899309635, -0.03545252978801727, 0.011988969519734383, -0.06443976610898972, 0.05125150829553604, 0.05504980683326721, -0.09647637605667114, 0.11448221653699875, -0.0229757409542799, -0.09816079586744308, 0.01928667165338993, 0.01362387090921402, -0.0039875018410384655, 0.16363605856895447, -0.053876735270023346, 0.16328389942646027, -0.050243448466062546, 0.1497075855731964, 0.06784499436616898, 0.06193917989730835, 0.032803237438201904, 0.13176016509532928, 0.07044955343008041, 0.020570071414113045, -0.01994336023926735, 0.03918552026152611, -0.0012693178141489625, 0.1405087560415268, -0.17907199263572693, -0.19247040152549744, -0.07199926674365997, 0.04043535515666008, 0.09880444407463074, 0.015739379450678825, -0.1319836974143982, 0.037299077957868576, -0.011011594906449318, 0.047967806458473206, 0.0035675473045557737, -0.06341993063688278, 0.11236631125211716, -0.014951668679714203, -0.13576851785182953, 0.11276646703481674, -0.026949748396873474, -0.07085660845041275, 0.17235395312309265, -0.02098783291876316, -0.1397596001625061, -0.12655788660049438, -0.10098196566104889, 0.12304044514894485, -0.037760231643915176, -0.1367933303117752, -0.06465110182762146, -0.07869987934827805, -0.13641506433486938, -0.01756148599088192, -0.00405949866399169, 0.00746533926576376, 
0.026491668075323105, -0.015298544429242611, 0.01931080035865307, -0.061234403401613235, 0.04726395010948181, -0.11732932180166245, -0.13216789066791534, -0.06739232689142227, 0.00910443440079689, 0.14349445700645447, -0.046557750552892685, -0.06811268627643585, -0.10939253866672516, 0.13943803310394287, -0.11714937537908554, 0.07222219556570053, 0.08676737546920776, 0.10981350392103195, -0.05662493035197258, -0.005782452877610922, 0.05814355984330177, 0.08352100849151611, -0.15907013416290283, -0.0260845385491848, -0.03742830455303192, -0.0655735582113266, -0.06814764440059662, -0.02612985670566559, 0.11158914864063263, 0.07898443192243576, 0.13784752786159515, -0.04168716073036194, -0.0702129378914833, -0.09789682924747467, 0.12160509824752808, -0.0248732753098011, 0.00922860112041235, 0.10899967700242996, 0.09646635502576828, -0.006154753267765045, 0.03464045375585556, -0.01059031207114458, -0.0064365747384727, -0.00735655939206481, -0.10119307041168213, 0.07012847065925598, 0.05499911680817604, 0.15220358967781067, 0.026570631191134453, 0.09617718309164047, 0.12206032872200012, -0.10627000033855438, -0.003999143373221159, 0.08120379596948624, 0.05638324096798897, 0.14528430998325348, -0.023069648072123528, -0.03280129283666611, -0.02048979513347149, 0.031209075823426247, 0.08002950996160507, 0.09556196630001068, 0.11157216131687164, -0.024250324815511703, 
0.02853819914162159, -0.03022930957376957, 0.07411752641201019, 0.179828479886055, -0.11447639763355255, -0.009923173114657402, 0.12063243240118027, -0.03824527934193611, 0.04566459357738495, 0.015442500822246075, 0.24209275841712952, -0.07647933810949326, 0.17702510952949524, 0.023710818961262703, 0.15163451433181763, -0.050325244665145874, -0.05300296097993851, 0.2313963621854782, -0.01907319203019142, 0.07156215608119965, -0.2555314004421234, -0.08565762639045715, -0.24174384772777557, 0.18999215960502625, -0.1636640876531601, -0.09374645352363586, -0.10536100715398788, -0.06944842636585236, -0.021486271172761917, -0.12909084558486938, 0.09647377580404282, 0.05295432731509209, 0.1318988800048828, -0.1532091498374939, 0.042384181171655655, 0.006089293863624334, -0.03057039901614189, -0.2196979522705078, -0.26309266686439514, -0.1019299328327179, -0.1873875856399536, 0.001719980500638485, 0.05896894633769989, -0.09292760491371155, 0.08598379045724869, -0.07754700630903244, -0.1571921855211258, -0.21806997060775757, -0.025026654824614525, -0.009594893082976341, 0.16060090065002441, -0.15647009015083313, -0.1812058985233307, 0.05096011608839035, -0.0786798894405365, 0.02003380097448826, -0.023485323414206505, 0.13483689725399017, -0.16476303339004517, -0.025406623259186745, 0.027503879740834236, -0.18953491747379303, 0.07186821103096008, 0.006197093054652214, 
0.1885448843240738, -0.12083768844604492, 0.0025681403931230307, -0.13775821030139923, 0.04107903316617012, -0.06492055952548981, 0.13340114057064056, -0.07097461074590683, -0.12777851521968842, 0.1808481216430664, -0.03347652778029442, -0.013566909357905388, -0.006343040149658918, -0.09055529534816742, -0.11775177717208862, 0.014072151854634285, -0.11820333451032639, 0.18703465163707733, 0.01022488996386528, -0.06825524568557739, 0.0105075528845191, 0.15717779099941254, 0.10278190672397614, 0.07081621885299683, 0.10927484184503555, 0.04990442097187042, 0.04936584085226059, 0.06783022731542587, 0.1003003790974617, -0.21114559471607208, -0.11292466521263123, -0.11144876480102539, -0.06933609396219254, 0.008507139049470425, 0.021236909553408623, -0.029802026227116585, 0.14850042760372162, -0.028035301715135574, 0.01566634513437748, 0.07323708385229111, -0.14974868297576904, 0.0447382852435112, -0.20221328735351562, 0.06962192803621292, 0.01177600771188736, -0.0077047268860042095, 0.008881865069270134, -0.04930245503783226, 0.099372997879982, 0.04040102660655975, -0.10992588102817535, -0.08913605660200119, -0.10979674011468887, -0.0671885758638382, -0.09175392240285873, -0.01578725501894951, 0.049079779535532, -0.05464664101600647, -0.1599915474653244, 0.05457446724176407, -0.043220918625593185, 0.07069909572601318, -0.065923772752285, 0.01828552968800068, 
0.0613727793097496, -0.1052587479352951, -0.08851351588964462, 0.15731720626354218, 0.038026243448257446, 0.09974362701177597, 0.027555780485272408, 0.019783219322562218, 0.02323148213326931, 0.02184430882334709, -0.0023944915737956762, -0.018309740349650383, 0.07111116498708725, -0.14895960688591003, 0.08679770678281784, -0.1990116983652115, -0.01947081834077835, -0.017198648303747177, -0.0502769909799099, -0.05657991021871567, -0.08968751132488251, 0.11170165240764618, -0.17143262922763824, 0.03680520877242088, -0.185768261551857, 0.03865693137049675, 0.040816232562065125, 0.015946393832564354, 0.09361467510461807, -0.05000890791416168, 0.010034195147454739, -0.04732491448521614, -0.16457539796829224, -0.021421188488602638, 0.07243219017982483, 0.20335161685943604, 0.10421793907880783, -0.041284024715423584, -0.12295814603567123, 0.11838122457265854, -0.009438835084438324, -0.14988818764686584, 0.01675855554640293, -0.06209997087717056, 0.14736291766166687, -0.0378183014690876, 0.03009478934109211, 0.15766417980194092, 0.025876084342598915, -0.13645198941230774, 0.05097203701734543, -0.168351948261261, -0.008244124241173267, -0.21738390624523163, -0.18022845685482025, 0.17131736874580383, -0.025389283895492554, 0.02599411830306053, -0.12873020768165588, 0.10738762468099594, -0.10426884144544601, -0.022872332483530045, -0.0812518447637558, -0.1663302332162857, 
0.02241811901330948, -0.08502748608589172, 0.12191841751337051, 0.09186282753944397, -0.06505511701107025, 0.09979842603206635, -0.009594878181815147, -0.06441784650087357, 0.12497932463884354, 0.0331905335187912, -0.19348397850990295, 0.048894695937633514, 0.1402207911014557, -0.08959509432315826, -0.07113820314407349, 0.0019471896812319756, 0.08117403835058212, -0.07248378545045853, -0.06540726870298386, 0.1199348196387291, 0.005091625731438398, 0.0521651953458786, 0.05403609946370125, 0.15063238143920898, -0.01856371946632862, 0.09587381035089493, 0.11580836772918701, 0.08721941709518433, 0.13716095685958862, -0.12122303992509842, -0.04251663759350777, 0.055226560682058334, -0.1156260222196579, -0.06764272600412369, 0.05101551488041878, -0.022115034982562065, -0.07971952855587006, -0.07944156229496002, -0.0299471877515316, 0.07596374303102493, -0.03292816877365112, -0.05497868359088898, 0.018280236050486565, 0.0502493679523468, -0.06566169857978821, 0.007391775958240032, 0.046450525522232056, 0.024256829172372818, 0.05088229849934578, -0.13810555636882782, 0.03358326107263565, 0.020631728693842888, 0.005824033636599779, -0.1501019448041916, 0.08219552040100098, 0.1534932553768158, 0.13376294076442719, -0.00689761433750391, -0.001810851157642901, -0.02979731559753418, -0.0432683564722538, -0.14104822278022766, -0.10196983069181442, -0.11259983479976654, 
0.06289740651845932, -0.05192892625927925, -0.14979679882526398, 0.11589710414409637, -0.05317995697259903, 0.08291515707969666, 0.05879698321223259, -0.017424441874027252, 0.00513019785284996, 0.18099290132522583, -0.0015112702967599034, -0.10995348542928696, -0.04385186731815338, -0.06278187036514282, 0.09855592995882034, -0.11121424287557602, -0.02494608238339424, 0.04713067412376404, 0.028294464573264122, 0.11554981768131256, 0.0425749272108078, -0.10169532150030136, -0.09702537953853607, -0.05544460937380791, -0.11352825909852982, -0.044458821415901184, 0.01020083948969841, 0.004016681108623743, 0.05578865110874176, 0.14222748577594757, 0.07752052694559097, -0.1439218819141388, 0.02662004344165325, 0.023430844768881798, -0.0314689539372921, 0.02113337256014347, -0.075941301882267, -0.005403656046837568, 0.0007807036163285375, 0.015386618673801422, -0.019663197919726372, 0.08647904545068741, -0.02527495287358761, -0.12675665318965912, -0.0009676333284005523, 0.013792743906378746, 0.09171216189861298, 0.19156019389629364, 0.15537789463996887, -0.06719275563955307, 0.0777103528380394, -0.08711826801300049, -0.0807412713766098, -0.09978622198104858, -0.1246127188205719, -0.038992661982774734, -0.0017188433557748795, 0.03861350938677788, -0.0969708114862442, -0.04368903487920761, 0.06943240016698837, 0.019206857308745384, 0.0032784463837742805, 0.014583691023290157, 
-0.15444780886173248, -0.023787420243024826, -0.16719916462898254, 0.22730430960655212, -0.10118851810693741, 0.02499416284263134, 0.014055686071515083, 0.0542733408510685, 0.0505002997815609, -0.042962975800037384, 0.06094721332192421, 0.10108322650194168, 0.017946282401680946, -0.13588549196720123, 0.13115371763706207, 0.023616991937160492, -0.06238555908203125, 0.13265973329544067, -0.03473856300115585, -0.007636628113687038, 0.07477495819330215, -0.030890755355358124, -0.02299710176885128, 0.013371876440942287, -0.05675802007317543, 0.09544119983911514, -0.15509489178657532, -0.0024753077886998653, -0.030684374272823334, 0.05283558368682861, 0.0706779807806015, 0.06380737572908401, -0.14152757823467255, -0.09494751691818237, 0.07821489870548248, -0.06981378048658371, 0.06796866655349731, 0.1323833465576172, 0.08352740108966827, 0.12105555832386017, -0.15549296140670776, -0.08716583997011185, 0.05555823817849159, -0.11187736690044403, 0.045797888189554214, -0.06994988024234772, -0.1446290761232376, 0.04631255194544792, 0.08021921664476395, -0.0007626697770319879, 0.12697412073612213, 0.09206321090459824, -0.15634337067604065, -0.1991792917251587, -0.13013789057731628, -0.0032671724911779165, 0.05987188220024109, 0.051303066313266754, -0.09679001569747925, 0.13344243168830872, -0.03105805441737175, -0.018993865698575974, 0.05819143354892731, -0.14172784984111786, 
0.033704470843076706, 0.06597581505775452, -0.00976334698498249, -0.04528874531388283, 0.011604983359575272, 0.0425703264772892, -0.0017801885260269046, 0.015190305188298225, -0.058274589478969574, -0.1792820394039154, 0.0558585487306118, 0.0257013738155365, 0.09273160994052887, -0.09947262704372406, 0.01794854924082756, -0.014432023279368877, -0.07648240774869919, -0.04369412362575531, -0.12217193841934204, 0.04314730688929558, -0.14366821944713593, -0.039131250232458115, 0.033188346773386, -0.015519550070166588, -0.17429587244987488, -0.012186008505523205, -0.12703049182891846, 0.026013776659965515, -0.06122725084424019, 0.05746646970510483, -0.13946260511875153, -0.0900595411658287, 0.044801805168390274, 0.02239234372973442, 0.07438916712999344, -0.026732420548796654, 0.05515031889081001, -0.0608719103038311, -0.08959120512008667, 0.17076967656612396, -0.0313820019364357, -0.05395623296499252, 0.07585965842008591, 0.11977636069059372, 0.05622194707393646, -0.18868382275104523, 0.013168465346097946, 0.0024953996762633324, -0.08272762596607208, -0.10000646114349365, 0.047953858971595764, 0.0717129334807396, 0.18837577104568481, 0.07186920195817947, 0.009268160909414291, 0.029813552275300026, -0.021828316152095795, -0.0259085725992918, 0.061164651066064835, 0.08834053575992584, -0.11917588114738464, 0.03564378246665001, 0.15329064428806305, -0.1303064525127411, 
0.1127602756023407, 0.012731309048831463, -0.008981498889625072, -0.05168347433209419, -0.14864395558834076, -0.0673896074295044, -0.0772608146071434, -0.06509225070476532, -0.004067547619342804, -0.004784464370459318, -0.09000155329704285, -0.21473345160484314, -0.11693336069583893, -0.013237876817584038, 0.19265493750572205, -0.14009499549865723, 0.08326851576566696, 0.13862167298793793, -0.009783009998500347, 0.027148598805069923, -0.06127919629216194, -0.07221553474664688, -0.033606041222810745, -0.07263798266649246, -0.07481699436903, -0.02843547612428665, 0.0698675811290741, -0.05901041254401207, 0.11225025355815887, 0.04397309571504593, 0.15954387187957764, 0.07179197669029236, 0.06947232782840729, -0.1214287206530571, 0.16598771512508392, -0.004106803797185421, -0.02026623860001564, 0.04163120687007904, -0.007420212030410767, 0.035292550921440125, -0.12804169952869415, 0.15143457055091858, -0.1502397209405899, 0.0549517497420311, -0.10373951494693756, -0.11452095955610275, 0.06656701117753983, 0.05386907234787941, 0.0007424317882396281, 4.100173828192055e-05, 0.07711230963468552, -0.1684083640575409, -0.10140907019376755, -0.04395730793476105, -0.0899011641740799, 0.04449152201414108, -0.02240469865500927, 0.20786619186401367, 0.08704587817192078, -0.07565540820360184, -0.052147284150123596, -0.01363111101090908, -0.023168981075286865, 0.12594492733478546, 
0.007313434965908527, 0.10223941504955292, 0.04967575520277023, -0.0673867017030716, 0.08155787736177444, -0.015581232495605946, -0.03280458226799965, -0.06092606484889984, -0.015587976202368736, -0.15795211493968964, 0.05182266607880592, 0.06915196776390076, -0.03706366941332817, -0.059077538549900055, -0.16277910768985748, -0.09599695354700089, -0.14574375748634338, -0.08545882999897003, 0.05481664091348648, 0.1286865621805191, -0.06291645765304565, 0.017740853130817413, 0.03327586501836777, 0.13105076551437378, -0.06096608564257622, 0.06726574152708054, 0.023757068440318108, 0.08567815274000168, -0.02580242231488228, -0.13817639648914337, 0.04161964729428291, 0.09940335154533386, 0.06795401126146317, -0.10364314168691635, 0.17324335873126984, 0.018838955089449883, 0.10340014100074768, 0.07179130613803864, -0.10189703106880188, -0.0847172811627388, -0.06348395347595215, -0.08026456087827682, -0.07140661776065826, 0.0222229715436697, 0.030401600524783134, 0.0022757607512176037, -0.040623899549245834, -0.10581796616315842, -0.06817130744457245, 0.02196422405540943, -0.10163158178329468, 0.06985803693532944, -0.11945917457342148, 0.11289193481206894, -0.0945759266614914, 0.11826559901237488, -0.085780568420887, 0.0454188734292984, -0.010663928464055061, 0.08980271220207214, -0.020324841141700745, -0.06538713723421097, 0.11135051399469376, -0.133448526263237, 
-0.01016157865524292, -0.13474911451339722, 0.18151770532131195, -0.0481596402823925, 0.04240679740905762, 0.08744647353887558, -0.045509014278650284, -0.11139407008886337, 0.07456164062023163, 0.18952010571956635, -0.09753356128931046, 0.01913530007004738, 0.11603354662656784, -0.03962641954421997, 0.08115842938423157, -0.07985290139913559, -0.0538833886384964, 0.05841883644461632, -0.05520693212747574, 0.08737113326787949, 0.02716566063463688, -0.05064123496413231, -0.16018512845039368, 0.02511039935052395, 0.0011049727909266949, 0.11794854700565338, 0.003866498125717044, 0.03586071729660034, 0.12373445183038712, -0.16510701179504395, -0.06522342562675476, -0.1516149491071701, -0.0658220574259758, 0.12133415043354034, 0.11345967650413513, 0.15050335228443146, 0.14813058078289032, -0.010990393348038197, 0.0936238020658493, 0.06161203607916832, -0.13985903561115265, -0.12355061620473862, 0.07826438546180725, -0.005961684510111809, -0.08018623292446136, -0.15975551307201385, 0.038416482508182526, 0.20983479917049408, 0.0751556009054184, -0.02981097437441349, 0.016358019784092903, -0.12438041716814041, 0.028725571930408478, -0.12022525817155838, -0.1681048423051834, 0.11542075127363205, -0.00852565374225378, -0.10172369331121445, -0.17582327127456665, 0.12232113629579544, -0.1193062961101532, 0.011328166350722313, 0.0671466514468193, -0.12850917875766754, 
0.011706344783306122, -0.01306492742151022, 0.034026503562927246, 0.16996613144874573, 0.03929959237575531, 0.02882532961666584, 0.03768996149301529, -0.1632540225982666, 0.02063869498670101, -0.08654597401618958, -0.010481683537364006, -0.012980261817574501, 0.1406683623790741, 0.009685558266937733, -0.055624689906835556, 0.018872622400522232, 0.06814306974411011, 0.20001474022865295, -0.10666023939847946, -0.035501878708601, -0.15555641055107117, -0.017821788787841797, -0.17073027789592743, 0.08725929260253906, -0.1384710669517517, 0.11810220032930374, -0.031294774264097214, -0.03760528936982155, -0.09760531038045883, -0.12913352251052856, -0.04116590693593025, -0.021615711972117424, 0.1796317845582962, -0.0846477523446083, -0.10506279021501541, 0.14274196326732635, -0.02385663241147995, -0.16150371730327606, 0.04499061405658722, -0.011709634214639664, -0.062249232083559036, -0.12238321453332901, -0.05265865847468376, -0.154579296708107, 0.07288661599159241, -0.1567605882883072, -0.13755612075328827, -0.1295805424451828, 0.057845547795295715, -0.08448051661252975, 0.08946897089481354, 0.05153246596455574, -0.13928821682929993, -0.10550630837678909, -0.11257796734571457, 0.041356414556503296, -0.06431549042463303, -0.05259308964014053, -0.05017320066690445, 0.15364325046539307, 0.11597760021686554, -0.1493173986673355, 0.12460240721702576, -0.08116982132196426, 
0.0071519510820508, -0.1881536841392517, 0.1722298115491867, 0.1151496171951294, 0.030445853248238564, 0.0802399069070816, 0.049547139555215836, 0.017573963850736618, 0.12158636003732681, -0.13453218340873718, 0.10264728963375092, -0.05159316956996918, 0.14819258451461792, -0.047446753829717636, -0.02024783007800579, -0.14676113426685333, -0.017218565568327904, 0.06400943547487259, 0.14062410593032837, -0.01688811555504799, -0.08309374004602432, -0.03545349836349487, -0.20415198802947998, 0.00719428202137351, -0.1552741825580597, 0.15697582066059113, -0.0176570862531662, -0.006337817758321762, -0.18802949786186218, 0.06232355535030365, -0.11517265439033508, -0.11725575476884842, 0.025562770664691925, -0.14397093653678894, -0.0200925525277853, 0.10358189791440964, 0.13838689029216766, -0.13049224019050598, -0.02648475579917431, 0.04154781997203827, -0.1789083629846573, -0.14315728843212128, 0.00796663761138916, 0.0039133066311478615, 0.10966794937849045, -0.1979994773864746, -0.06906866282224655, -0.1844470202922821, -0.11601485311985016, -0.011950342915952206, -0.009389415383338928, -0.12479641288518906, -0.15323327481746674, -0.01119942869991064, 0.08448152989149094, -0.04795987904071808, -0.010490957647562027, -0.0060841403901577, -0.07778484374284744, -0.008845590054988861, -0.16708457469940186, -0.04226642847061157, 0.06293007731437683, -0.021335018798708916, 
0.15097776055335999, -0.06937047094106674, 0.07033262401819229, 0.038833145052194595, 0.06574896723031998, 0.15300340950489044, -0.008870169520378113, -0.06320066004991531, 0.08518354594707489, 0.07241242378950119, 0.053081974387168884, 0.1606948971748352, 0.13196958601474762, -0.08089067786931992, -0.0703900009393692, 0.1105104386806488, 0.04819600656628609, -0.03610634058713913, -0.009773395955562592, -0.057841867208480835, -0.06618007272481918, 0.0028889477252960205, -0.028874801471829414, 0.030451858416199684, 0.04405415058135986, 0.016284100711345673, 0.04640676826238632, 0.11600895971059799, -0.05838906019926071, 0.04558879882097244, -0.03193943202495575, 0.015463829040527344, -0.10187024623155594, 0.031151022762060165, 0.14032047986984253, 0.0770668163895607, -0.06816349178552628, -0.07878554612398148, -0.1136668249964714, -0.07979936897754669, 0.03197537362575531, -0.0681593045592308, -0.06370055675506592, -0.07424595206975937, 0.15835075080394745, -0.04818819463253021, -0.08834192901849747, -0.05025152489542961, 0.11187583953142166, -0.12045996636152267, 0.11028623580932617, -0.10567393153905869, -0.06651300936937332, -0.013063956052064896, 0.11123862117528915, 0.12241241335868835, 0.06645073741674423, -0.1376217007637024, -0.06940817832946777, -0.07641919702291489, 0.03968466818332672, 0.00647708959877491, 0.07677006721496582, 0.054167039692401886, 
0.15281079709529877, -0.13771700859069824, 0.1701870560646057, 0.11007127910852432, 0.0789831355214119, 0.2193196415901184, -0.028789326548576355, -0.10046793520450592, 0.06830079853534698, 0.020880436524748802, 0.025303101167082787, 0.07731310278177261, 0.004414535127580166, -0.11566855013370514, 0.0400247648358345, 0.03642258048057556, -0.0446031279861927, 0.06227675452828407, -0.015536632388830185, -0.04344247281551361, -0.10485710948705673, 0.15350644290447235, 0.1385308802127838, 0.09139472246170044, 0.06552357971668243, 0.100094273686409, 0.031335052102804184, -0.05899416282773018, -0.036369118839502335, -0.12720511853694916, -0.08259139955043793, -0.20397166907787323, 0.07228738069534302, -0.06989142298698425, -0.0029742950573563576, 0.14530479907989502, 0.018126729875802994, -0.003887331113219261, 0.06540319323539734, 0.0027410604525357485, -0.05216919258236885, 0.032110054045915604, 0.04439504072070122, 0.07629147917032242, -0.08893219381570816, 0.03814477100968361, 0.06503677368164062, 0.02834901586174965, 0.007833278737962246, -0.028748854994773865, 0.043084025382995605, 0.06351660937070847, 0.086367666721344, -0.12967172265052795, -0.03174547106027603, 0.05006978660821915, 0.020643938332796097, 0.02982928231358528, -0.07457613945007324, 0.07526203244924545, -0.02759748511016369, 0.0207295510917902, 0.0020885944832116365, 0.002779147122055292, 
};

const float LinePredictionModel_layer_0_bias_hr[] = {
0.03202928230166435, -0.07942750304937363, 0.06267699599266052, -0.04050781950354576, -0.09053763002157211, -0.004007271956652403, -0.015479684807360172, 0.025434663519263268, 0.14290446043014526, 0.016177505254745483, 0.02203092724084854, -0.0237150639295578, 0.1488148272037506, 0.104103684425354, -0.046156782656908035, -0.055072590708732605, -0.021665513515472412, -0.06176316365599632, 0.10003536939620972, 0.0025310239288955927, 0.0798666775226593, 0.01535935327410698, 0.12033234536647797, 0.013142460025846958, -0.010784409008920193, -0.033621031790971756, 0.13262736797332764, -0.022135622799396515, 0.0607772022485733, -0.001345859607681632, 0.1379128396511078, -0.04057484492659569, -0.06535442173480988, 0.1015157476067543, -0.01467474177479744, -0.035098206251859665, 0.13854512572288513, -0.05337410792708397, 0.06696771830320358, 0.1296917051076889, 0.14319728314876556, 0.13378174602985382, 0.024070890620350838, 0.14580155909061432, 0.09649789333343506, 0.14061440527439117, 0.14372164011001587, -0.00881270132958889, 0.07967735826969147, -0.0019125682301819324, 0.06001655012369156, 0.14549338817596436, 0.003333719214424491, 0.07181193679571152, 0.11778135597705841, 0.018604937940835953, 0.12526604533195496, 0.11641664803028107, 0.034807849675416946, 0.04382694512605667, 0.010439052246510983, 0.052581723779439926, 0.06198175996541977, 0.12126539647579193, };

const float LinePredictionModel_layer_0_weights_hz[] = {
0.1005026325583458, 0.2693268656730652, -0.24144552648067474, 0.007132112048566341, 0.0005289636319503188, -0.21473661065101624, 0.06289731711149216, 0.12973281741142273, -0.0683126449584961, 0.03895166143774986, 0.09671460092067719, 0.008941561914980412, -0.3132457435131073, 0.104317307472229, 0.08664015680551529, 0.1711687296628952, 0.09537326544523239, 0.06692618131637573, 0.12320994585752487, -0.09682562202215195, 0.2752176523208618, 0.05899858847260475, 0.06925055384635925, 0.04838210344314575, 0.10445298254489899, -0.23920834064483643, 0.10565104335546494, -0.15183889865875244, 0.03378156200051308, -0.04351542890071869, -0.09623706340789795, 0.21167074143886566, -0.0002647035871632397, -0.04740940034389496, 0.15350262820720673, 0.039420194923877716, -0.12521964311599731, 0.11743859946727753, -0.0415542908012867, -0.08296363055706024, 0.1604563593864441, 0.08929751813411713, -0.10731654614210129, 0.023218825459480286, 0.17061269283294678, 0.21129938960075378, -0.08559492975473404, -0.15248870849609375, 0.03579751029610634, -0.0842626690864563, -0.21420429646968842, -0.0907607227563858, -0.0802910178899765, 0.09001845866441727, 0.05630825087428093, -0.019911589100956917, -0.03916506469249725, -0.052097026258707047, -0.09719689935445786, -0.0732370987534523, 0.04472466558218002, 0.26842227578163147, 0.010575656779110432, 0.1027330681681633, 
0.36726635694503784, 0.33715131878852844, -0.10712172091007233, -0.23748575150966644, -0.08386491239070892, -0.33841800689697266, -0.23134763538837433, 0.22450929880142212, -0.20612600445747375, -0.11087444424629211, 0.1290123164653778, -0.26266616582870483, -0.21106280386447906, 0.12656688690185547, 0.3073152005672455, 0.23929744958877563, 0.16407187283039093, -0.30491742491722107, -0.2922912538051605, -0.265683114528656, 0.22878585755825043, -0.046491242945194244, 0.3218497931957245, -0.17079246044158936, 0.19376416504383087, -0.23987235128879547, -0.3774785101413727, 0.016730615869164467, 0.3386934995651245, 0.16807681322097778, -0.048630788922309875, 0.2063547819852829, -0.08825595676898956, 0.32435843348503113, -0.21720504760742188, -0.0686117485165596, -0.17911535501480103, 0.343772828578949, 0.16992956399917603, -0.18943336606025696, 0.38649627566337585, 0.2909986078739166, 0.10261856764554977, 0.3874247372150421, -0.18105556070804596, 0.3774285912513733, 0.2510870695114136, -0.26351824402809143, -0.15195542573928833, 0.3936493694782257, -0.2828228771686554, 0.2935974895954132, 0.29922619462013245, 0.28985336422920227, 0.15006442368030548, -0.11718669533729553, -0.29255130887031555, 0.15541628003120422, 0.23049233853816986, -0.16446861624717712, 0.148365318775177, 0.12871690094470978, -0.18395644426345825, 0.1743478924036026, 
0.24899530410766602, 0.3518184423446655, -0.14969944953918457, -0.37596753239631653, 0.07295110076665878, -0.3514411747455597, -0.3386324942111969, 0.2517812252044678, -0.21984516084194183, -0.24061095714569092, -0.14873746037483215, -0.21630476415157318, -0.3410496115684509, 0.2154809981584549, -0.01991986855864525, -0.00209259195253253, 0.23667970299720764, -0.3039339780807495, -0.009256131947040558, -0.392720490694046, 0.16830186545848846, -0.2331017255783081, 0.3599880635738373, -0.18034738302230835, 0.3047526478767395, -0.16203315556049347, -0.31471705436706543, 0.2889116406440735, 0.2745381295681, -0.08985608071088791, 0.18982148170471191, 0.2176399677991867, 0.11825699359178543, 0.29770731925964355, 0.19084982573986053, -0.3124677538871765, -0.1651923954486847, 0.24063943326473236, 0.17043069005012512, -0.20326536893844604, 0.31079381704330444, 0.29468321800231934, -0.3392685353755951, 0.27393966913223267, -0.23030629754066467, 0.4022316336631775, 0.29323452711105347, -0.07923291623592377, -0.057138025760650635, 0.26270774006843567, -0.3508715331554413, 0.2511647343635559, 0.21964459121227264, 0.38988131284713745, 0.4077257215976715, -0.04125599190592766, -0.16951632499694824, -0.07883528620004654, 0.28351718187332153, -0.2586144208908081, -0.1948038637638092, 0.3724229335784912, -0.37375766038894653, 0.4043044149875641, 
0.15281856060028076, 0.2761003077030182, -0.014176995493471622, -0.17837896943092346, -0.12273091077804565, -0.130617156624794, -0.38727498054504395, 0.23698051273822784, -0.16594000160694122, -0.17643475532531738, 0.11432457715272903, -0.39409345388412476, -0.34906333684921265, 0.25316694378852844, 0.04908222332596779, -0.06780406087636948, 0.3262859284877777, -0.17089048027992249, 0.07320649921894073, -0.26174065470695496, 0.2376454621553421, -0.31923532485961914, 0.29767802357673645, -0.0574471615254879, 0.3441162109375, -0.3650759756565094, -0.35267847776412964, 0.257057785987854, 0.3134145140647888, 0.0035030331928282976, 0.24927760660648346, 0.274440735578537, 0.042921874672174454, 0.21496789157390594, -0.21277658641338348, -0.3587814271450043, -0.2648434638977051, 0.17117920517921448, 0.15669839084148407, -0.4049294590950012, 0.31221330165863037, 0.3196706175804138, -0.3714561462402344, 0.23803038895130157, -0.18284638226032257, 0.22525720298290253, 0.13599173724651337, -0.08689215034246445, -0.2352318912744522, 0.31282100081443787, -0.2672309875488281, 0.2849733531475067, 0.33782726526260376, 0.17391997575759888, 0.1362258493900299, -0.3541778028011322, -0.19996024668216705, 0.0565883107483387, 0.30104905366897583, -0.25881868600845337, -0.20409168303012848, 0.35979485511779785, -0.16747242212295532, 0.2891140282154083, 
-0.07441767305135727, 0.2435804158449173, -0.15032655000686646, -0.3239838480949402, -0.20838308334350586, -0.16391952335834503, -0.26011013984680176, 0.36615389585494995, -0.03762954846024513, -0.26256874203681946, 0.1835477650165558, -0.20301327109336853, -0.2891884446144104, 0.34249043464660645, 0.26370641589164734, -0.2398584634065628, 0.3401309549808502, -0.3467494249343872, 0.03673681244254112, -0.19887620210647583, 0.3133813142776489, -0.33880099654197693, 0.18654952943325043, -0.36235281825065613, 0.35157474875450134, -0.2060699462890625, -0.17339582741260529, 0.10068891197443008, 0.2993422746658325, 0.1469903290271759, 0.3166976869106293, 0.22292941808700562, 0.2401929646730423, 0.06556837260723114, -0.14120519161224365, -0.3131496012210846, -0.21259407699108124, 0.3735753297805786, 0.35843637585639954, -0.19498443603515625, 0.2807573676109314, 0.15920548141002655, -0.1679251492023468, 0.3371017873287201, -0.21686714887619019, 0.3332509994506836, 0.23542696237564087, -0.16312627494335175, -0.17600736021995544, 0.18589605391025543, -0.24737825989723206, 0.25126418471336365, 0.18359217047691345, 0.13807377219200134, 0.17888250946998596, -0.34757760167121887, -0.22196900844573975, 0.3155469000339508, 0.34492531418800354, -0.3651423752307892, 0.10876622796058655, 0.2685178816318512, -0.10295924544334412, 0.36170724034309387, 
0.26850536465644836, 0.3330163359642029, 0.08346820622682571, -0.33132389187812805, -0.18134112656116486, -0.006686865817755461, -0.4134393632411957, 0.18112167716026306, -0.1643773913383484, 0.057938624173402786, -0.047713421285152435, -0.2762804329395294, -0.1926143318414688, 0.39619338512420654, -0.008541704155504704, -0.29734575748443604, 0.34894922375679016, -0.19963540136814117, 0.3188353180885315, -0.27958065271377563, 0.2122264802455902, -0.36450642347335815, 0.15618444979190826, -0.23328633606433868, 0.3200509548187256, -0.19599753618240356, -0.36160808801651, 0.405084490776062, 0.0697222650051117, 0.08064597100019455, 0.17001789808273315, 0.25946205854415894, 0.31063908338546753, -0.09897457808256149, 0.25214359164237976, -0.3832797706127167, -0.3274685740470886, 0.23857364058494568, 0.3078818917274475, -0.17536897957324982, 0.24538883566856384, 0.3492186367511749, -0.3194367289543152, 0.24827419221401215, -0.35470038652420044, 0.1806149184703827, 0.34115564823150635, -0.06936793774366379, -0.12551181018352509, 0.18956120312213898, -0.34723690152168274, 0.3463093340396881, 0.40371066331863403, 0.3934621810913086, 0.3545754849910736, -0.37918880581855774, -0.41650161147117615, 0.018214037641882896, 0.2005583792924881, -0.34480130672454834, -0.3954331874847412, 0.36948931217193604, -0.15638165175914764, 0.3726338744163513, 
-0.03348812088370323, 0.18536703288555145, 0.22971118986606598, 0.0002783207455649972, -0.1782623678445816, 0.23752564191818237, 0.09144482016563416, -0.04294787347316742, 0.36209386587142944, 0.12376907467842102, -0.06969085335731506, -0.08487458527088165, -0.27453985810279846, -0.10961700230836868, -0.3059346675872803, 0.049569278955459595, 0.1389419585466385, -0.08178617805242538, 0.33574455976486206, 0.02821100875735283, -0.06520407646894455, -0.10736383497714996, -0.050882432609796524, -0.2613483667373657, -0.2680658996105194, 0.12208089977502823, -0.050467923283576965, 0.021206852048635483, -0.28896278142929077, 0.2120082825422287, -0.07924175262451172, -0.0679062232375145, 0.12189994007349014, -0.01895318366587162, 0.20712459087371826, -0.15030594170093536, -0.10082665830850601, 0.11809792369604111, 0.0024931414518505335, -0.016959840431809425, -0.1041165441274643, -0.10311363637447357, -0.10426019877195358, 0.000957106938585639, -0.23315806686878204, -0.27120086550712585, 0.008336097933351994, -0.06959107518196106, 0.030204730108380318, 0.047773029655218124, 0.09923793375492096, 0.24493280053138733, -0.12018954008817673, 0.11839280277490616, 0.16763755679130554, -0.1511426419019699, -0.11764708161354065, -0.07989705353975296, 0.09174692630767822, -0.17386749386787415, 0.11799067258834839, 0.29310181736946106, 0.026888322085142136, 0.10945284366607666, 
